{"learner":{"attributes":{"scikit_learn":"{\"_estimator_type\": \"regressor\"}"},"feature_names":["NDVI_Mean","NDVI_Max","Growth","VV","VH"],"feature_types":["float","float","float","float","float"],"gradient_booster":{"model":{"cats":{"enc":[],"feature_segments":[],"sorted_idx":[]},"gbtree_model_param":{"num_parallel_tree":"1","num_trees":"100"},"iteration_indptr":[0,1,2,3,4,5,6,7,8,9,10,11,12,13,14,15,16,17,18,19,20,21,22,23,24,25,26,27,28,29,30,31,32,33,34,35,36,37,38,39,40,41,42,43,44,45,46,47,48,49,50,51,52,53,54,55,56,57,58,59,60,61,62,63,64,65,66,67,68,69,70,71,72,73,74,75,76,77,78,79,80,81,82,83,84,85,86,87,88,89,90,91,92,93,94,95,96,97,98,99,100],"tree_info":[0,0,0,0,0,0,0,0,0,0,0,0,0,0,0,0,0,0,0,0,0,0,0,0,0,0,0,0,0,0,0,0,0,0,0,0,0,0,0,0,0,0,0,0,0,0,0,0,0,0,0,0,0,0,0,0,0,0,0,0,0,0,0,0,0,0,0,0,0,0,0,0,0,0,0,0,0,0,0,0,0,0,0,0,0,0,0,0,0,0,0,0,0,0,0,0,0,0,0,0],"trees":[{"base_weights":[5.4054745E-3,2.0653921E-1,-1.02853E0,-5.504107E-2,6.3857925E-1,-5.2725878E-2,-2.3302248E-2,1.9979611E-1,-1.3269246E-1,4.1724962E-1,7.314545E-1,4.875583E-3,1.8408788E-2,-1.2663727E-2,6.8304413E-3,2.1938426E-2,3.507519E-3,3.7512686E-2,1.2390184E-2],"categories":[],"categories_nodes":[],"categories_segments":[],"categories_sizes":[],"default_left":[0,0,0,0,0,0,0,0,0,0,0,0,0,0,0,0,0,0,0],"id":0,"left_children":[1,3,5,7,9,-1,-1,11,13,15,17,-1,-1,-1,-1,-1,-1,-1,-1],"loss_changes":[6.3847977E1,2.907953E1,2.3942947E-1,3.2124534E0,1.688736E0,0E0,0E0,6.1855793E-1,4.0612392E0,2.0076513E-1,4.2326355E-1,0E0,0E0,0E0,0E0,0E0,0E0,0E0,0E0],"parents":[2147483647,0,0,1,1,2,2,3,3,4,4,7,7,8,8,9,9,10,10],"right_children":[2,4,6,8,10,-1,-1,12,14,16,18,-1,-1,-1,-1,-1,-1,-1,-1],"split_conditions":[-7.2818913E0,5.957847E-1,7.1996436E-2,-2.1085896E1,6.141244E-1,-5.2725878E-2,-2.3302248E-2,-2.1592684E1,3.7525135E-1,-1.0398391E1,6.737062E-1,4.875583E-3,1.8408788E-2,-1.2663727E-2,6.8304413E-3,2.1938426E-2,3.507519E-3,3.7512686E-2,1.2390184E-2],"split_indices":[3,1,2,4,1,0,0,4,0,3,1,0,0,0,0,0,0,0,0],"split_type":[0,0,0,0,0,0,0,0,0,0,0,0,0,0,0,0,0,0,0],"sum_hessian":[3.05E2,2.56E2,4.9E1,1.6E2,9.6E1,4.6E1,3E0,3.7E1,1.23E2,3E1,6.6E1,2.4E1,1.3E1,8.5E1,3.8E1,2.8E1,2E0,6.3E1,3E0],"tree_param":{"num_deleted":"0","num_feature":"5","num_nodes":"19","size_leaf_vector":"1"}},{"base_weights":[-1.4256277E-2,1.8026038E-1,-1.0270668E0,-8.5796654E-2,5.802039E-1,-5.6474816E-2,-7.7384263E-1,3.9039616E-2,-2.4716215E-1,3.497758E-1,6.8349683E-1,-1.83177E-3,-8.176284E-1,-6.456775E-3,5.504041E-3,-1.686277E-2,2.7728856E-3,7.7220746E-3,1.9373167E-2,3.48272E-2,1.5030354E-2,-4.240906E-2,-8.983386E-3],"categories":[],"categories_nodes":[],"categories_segments":[],"categories_sizes":[],"default_left":[0,0,0,0,0,0,0,0,0,0,0,0,0,0,0,0,0,0,0,0,0,0,0],"id":1,"left_children":[1,3,5,7,9,-1,11,13,15,17,19,-1,21,-1,-1,-1,-1,-1,-1,-1,-1,-1,-1],"loss_changes":[5.8696667E1,2.6651722E1,3.709526E-1,3.0514336E0,2.1410904E0,0E0,5.187912E-1,1.0416884E0,1.8181276E0,1.830945E-1,1.3031387E-1,0E0,1.5947342E-1,0E0,0E0,0E0,0E0,0E0,0E0,0E0,0E0,0E0,0E0],"parents":[2147483647,0,0,1,1,2,2,3,3,4,4,6,6,7,7,8,8,9,9,10,10,12,12],"right_children":[2,4,6,8,10,-1,12,14,16,18,20,-1,22,-1,-1,-1,-1,-1,-1,-1,-1,-1,-1],"split_conditions":[-8.539128E0,5.864021E-1,3.8906325E-2,4.5161107E-1,6.12137E-1,-5.6474816E-2,4.0522654E-2,3.2523427E-2,3.8383526E-1,-2.4678212E-1,6.737062E-1,-1.83177E-3,1.7684636E-1,-6.456775E-3,5.504041E-3,-1.686277E-2,2.7728856E-3,7.7220746E-3,1.9373167E-2,3.48272E-2,1.5030354E-2,-4.240906E-2,-8.983386E-3],"split_indices":[3,1,2,1,1,0,2,2,0,2,1,0,0,0,0,0,0,0,0,0,0,0,0],"split_type":[0,0,0,0,0,0,0,0,0,0,0,0,0,0,0,0,0,0,0,0,0,0,0],"sum_hessian":[2.96E2,2.49E2,4.7E1,1.5E2,9.9E1,3.1E1,1.6E1,8.5E1,6.5E1,3.2E1,6.7E1,1E0,1.5E1,2.5E1,6E1,5E1,1.5E1,6E0,2.6E1,6.4E1,3E0,1.4E1,1E0],"tree_param":{"num_deleted":"0","num_feature":"5","num_nodes":"23","size_leaf_vector":"1"}},{"base_weights":[-4.3861424E-3,1.854899E-1,-4.749009E-2,-5.8701284E-2,5.895742E-1,2.112487E-1,-1.4662713E-1,8.2190424E-1,4.906167E-1,4.386963E-3,1.8779524E-2,-1.2410938E-2,4.778844E-3,4.44056E-2,2.5766224E-2,3.5875265E-2,1.9292932E-2],"categories":[],"categories_nodes":[],"categories_segments":[],"categories_sizes":[],"default_left":[0,0,0,0,0,0,0,0,0,0,0,0,0,0,0,0,0],"id":2,"left_children":[1,3,-1,5,7,9,11,13,15,-1,-1,-1,-1,-1,-1,-1,-1],"loss_changes":[5.2593616E1,2.4111025E1,0E0,3.6625185E0,1.7119141E0,7.383609E-1,2.878008E0,7.00798E-2,1.31563E0,0E0,0E0,0E0,0E0,0E0,0E0,0E0,0E0],"parents":[2147483647,0,0,1,1,3,3,4,4,5,5,6,6,7,7,8,8],"right_children":[2,4,-1,6,8,10,12,14,16,-1,-1,-1,-1,-1,-1,-1,-1],"split_conditions":[-7.2818913E0,5.92383E-1,-4.749009E-2,-2.1109598E1,4.559296E-1,-1.3787644E1,3.7525135E-1,1.2879026E-1,-2.7032775E-1,4.386963E-3,1.8779524E-2,-1.2410938E-2,4.778844E-3,4.44056E-2,2.5766224E-2,3.5875265E-2,1.9292932E-2],"split_indices":[3,1,0,4,0,3,0,2,2,0,0,0,0,0,0,0,0],"split_type":[0,0,0,0,0,0,0,0,0,0,0,0,0,0,0,0,0],"sum_hessian":[2.91E2,2.43E2,4.8E1,1.52E2,9.1E1,3.7E1,1.15E2,2.5E1,6.6E1,2.2E1,1.5E1,8.1E1,3.4E1,1.9E1,6E0,1.9E1,4.7E1],"tree_param":{"num_deleted":"0","num_feature":"5","num_nodes":"17","size_leaf_vector":"1"}},{"base_weights":[1.4115017E-2,1.7919943E-1,-4.686108E-2,-4.6120696E-2,5.514388E-1,6.431483E-2,-2.4229537E-1,3.6319378E-1,6.5623045E-1,-5.029557E-3,6.3457824E-3,-1.705764E-2,2.5442333E-3,1.8818405E-2,4.201889E-3,3.555962E-2,2.164698E-2],"categories":[],"categories_nodes":[],"categories_segments":[],"categories_sizes":[],"default_left":[0,0,0,0,0,0,0,0,0,0,0,0,0,0,0,0,0],"id":3,"left_children":[1,3,-1,5,7,9,11,13,15,-1,-1,-1,-1,-1,-1,-1,-1],"loss_changes":[4.885371E1,2.2251785E1,0E0,3.6119156E0,1.734312E0,1.1173542E0,1.756341E0,1.08122826E-1,4.6526337E-1,0E0,0E0,0E0,0E0,0E0,0E0,0E0,0E0],"parents":[2147483647,0,0,1,1,3,3,4,4,5,5,6,6,7,7,8,8],"right_children":[2,4,-1,6,8,10,12,14,16,-1,-1,-1,-1,-1,-1,-1,-1],"split_conditions":[-7.2818913E0,5.8629835E-1,-4.686108E-2,4.8761284E-1,6.148533E-1,3.931017E-2,5.4184467E-1,-1.657319E1,1.158851E-1,-5.029557E-3,6.3457824E-3,-1.705764E-2,2.5442333E-3,1.8818405E-2,4.201889E-3,3.555962E-2,2.164698E-2],"split_indices":[3,1,0,1,1,2,1,4,2,0,0,0,0,0,0,0,0],"split_type":[0,0,0,0,0,0,0,0,0,0,0,0,0,0,0,0,0],"sum_hessian":[3.09E2,2.64E2,4.5E1,1.65E2,9.9E1,1.06E2,5.9E1,3.7E1,6.2E1,2.9E1,7.7E1,4.4E1,1.5E1,3.5E1,2E0,4.8E1,1.4E1],"tree_param":{"num_deleted":"0","num_feature":"5","num_nodes":"17","size_leaf_vector":"1"}},{"base_weights":[-3.312786E-3,1.6672271E-1,-8.502196E-1,-5.685301E-2,5.11232E-1,-8.616469E-1,-6.400013E-3,6.320729E-2,-2.3514527E-1,3.2166013E-1,6.111201E-1,-4.4387263E-1,-4.4360705E-2,-5.7915244E-3,6.3490975E-3,-1.5103354E-2,4.032612E-4,1.0221616E-2,1.8722067E-2,3.313833E-2,2.1011615E-2,-2.5552327E-2,-4.3794275E-3],"categories":[],"categories_nodes":[],"categories_segments":[],"categories_sizes":[],"default_left":[0,0,0,0,0,0,0,0,0,0,0,0,0,0,0,0,0,0,0,0,0,0,0],"id":4,"left_children":[1,3,5,7,9,11,-1,13,15,17,19,21,-1,-1,-1,-1,-1,-1,-1,-1,-1,-1,-1],"loss_changes":[4.5647083E1,2.0363382E1,3.2711792E-1,3.4612002E0,1.772768E0,1.616211E-1,0E0,1.1222614E0,1.0603819E0,1.5857387E-1,3.8201523E-1,7.490325E-2,0E0,0E0,0E0,0E0,0E0,0E0,0E0,0E0,0E0,0E0,0E0],"parents":[2147483647,0,0,1,1,2,2,3,3,4,4,5,5,7,7,8,8,9,9,10,10,11,11],"right_children":[2,4,6,8,10,12,-1,14,16,18,20,22,-1,-1,-1,-1,-1,-1,-1,-1,-1,-1,-1],"split_conditions":[-7.2818913E0,5.8629835E-1,3.1980708E-1,4.5539683E-1,6.141244E-1,-1.649123E1,-6.400013E-3,3.2523427E-2,3.63423E-1,4.891527E-1,1.158851E-1,1.6592601E-1,-4.4360705E-2,-5.7915244E-3,6.3490975E-3,-1.5103354E-2,4.032612E-4,1.0221616E-2,1.8722067E-2,3.313833E-2,2.1011615E-2,-2.5552327E-2,-4.3794275E-3],"split_indices":[3,1,1,1,1,4,0,2,0,0,2,0,0,0,0,0,0,0,0,0,0,0,0],"split_type":[0,0,0,0,0,0,0,0,0,0,0,0,0,0,0,0,0,0,0,0,0,0,0],"sum_hessian":[3.15E2,2.63E2,5.2E1,1.6E2,1.03E2,5.1E1,1E0,9.6E1,6.4E1,3.7E1,6.6E1,4E0,4.7E1,2.5E1,7.1E1,5E1,1.4E1,1.3E1,2.4E1,5E1,1.6E1,3E0,1E0],"tree_param":{"num_deleted":"0","num_feature":"5","num_nodes":"23","size_leaf_vector":"1"}},{"base_weights":[1.2185498E-2,1.7218482E-1,-8.392546E-1,-5.6311272E-2,4.7734025E-1,-4.256442E-2,-6.2400103E-3,6.5200254E-2,-2.51011E-1,2.9759428E-1,6.0826266E-1,-1.1017945E-2,5.0693955E-3,-1.5101621E-2,-4.0606367E-3,1.8807018E-2,1.1634612E-2,3.2960262E-2,2.303408E-2],"categories":[],"categories_nodes":[],"categories_segments":[],"categories_sizes":[],"default_left":[0,0,0,0,0,0,0,0,0,0,0,0,0,0,0,0,0,0,0],"id":5,"left_children":[1,3,5,7,9,-1,-1,11,13,15,17,-1,-1,-1,-1,-1,-1,-1,-1],"loss_changes":[4.305691E1,1.8574217E1,3.2363892E-1,3.63608E0,2.5017204E0,0E0,0E0,1.0040447E0,4.8660874E-1,1.6736507E-1,1.8499565E-1,0E0,0E0,0E0,0E0,0E0,0E0,0E0,0E0],"parents":[2147483647,0,0,1,1,2,2,3,3,4,4,7,7,8,8,9,9,10,10],"right_children":[2,4,6,8,10,-1,-1,12,14,16,18,-1,-1,-1,-1,-1,-1,-1,-1],"split_conditions":[-7.2818913E0,3.9428893E-1,3.1980708E-1,4.5263433E-1,6.141244E-1,-4.256442E-2,-6.2400103E-3,-1.0965668E-2,3.6151126E-1,-1.6952608E1,9.851472E-2,-1.1017945E-2,5.0693955E-3,-1.5101621E-2,-4.0606367E-3,1.8807018E-2,1.1634612E-2,3.2960262E-2,2.303408E-2],"split_indices":[3,0,1,1,1,0,0,2,0,4,2,0,0,0,0,0,0,0,0],"split_type":[0,0,0,0,0,0,0,0,0,0,0,0,0,0,0,0,0,0,0],"sum_hessian":[3.14E2,2.65E2,4.9E1,1.52E2,1.13E2,4.8E1,1E0,9.4E1,5.8E1,4.9E1,6.4E1,1E1,8.4E1,4.4E1,1.4E1,2E1,2.9E1,4.5E1,1.9E1],"tree_param":{"num_deleted":"0","num_feature":"5","num_nodes":"19","size_leaf_vector":"1"}},{"base_weights":[-1.29314E-2,1.382651E-1,-7.938439E-1,-7.224353E-2,4.1181555E-1,-4.0905323E-2,-3.2242948E-1,4.1344367E-2,-2.506054E-1,2.7263847E-1,6.006049E-1,-2.2953099E-2,-6.1932327E-3,7.2245374E-3,-1.3775625E-3,-1.4756418E-2,-4.2029913E-3,1.7333694E-2,1.1132548E-2,3.5413068E-2,1.9081295E-2],"categories":[],"categories_nodes":[],"categories_segments":[],"categories_sizes":[],"default_left":[0,0,0,0,0,0,0,0,0,0,0,0,0,0,0,0,0,0,0,0,0],"id":6,"left_children":[1,3,5,7,9,-1,11,13,15,17,19,-1,-1,-1,-1,-1,-1,-1,-1,-1,-1],"loss_changes":[3.4940773E1,1.4310765E1,2.8522873E-1,2.8669858E0,2.6739674E0,0E0,5.166009E-2,6.222319E-1,3.8302207E-1,1.5966702E-1,7.905636E-1,0E0,0E0,0E0,0E0,0E0,0E0,0E0,0E0,0E0,0E0],"parents":[2147483647,0,0,1,1,2,2,3,3,4,4,6,6,7,7,8,8,9,9,10,10],"right_children":[2,4,6,8,10,-1,12,14,16,18,20,-1,-1,-1,-1,-1,-1,-1,-1,-1,-1],"split_conditions":[-7.2818913E0,3.9428893E-1,7.1996436E-2,4.5263433E-1,6.304501E-1,-4.0905323E-2,1.6216902E-1,-2.1085896E1,-1.8293612E1,-1.6952608E1,9.851472E-2,-2.2953099E-2,-6.1932327E-3,7.2245374E-3,-1.3775625E-3,-1.4756418E-2,-4.2029913E-3,1.7333694E-2,1.1132548E-2,3.5413068E-2,1.9081295E-2],"split_indices":[3,0,2,1,1,0,0,4,4,4,2,0,0,0,0,0,0,0,0,0,0],"split_type":[0,0,0,0,0,0,0,0,0,0,0,0,0,0,0,0,0,0,0,0,0],"sum_hessian":[2.94E2,2.47E2,4.7E1,1.4E2,1.07E2,4.4E1,3E0,8.6E1,5.4E1,6.3E1,4.4E1,1E0,2E0,3.4E1,5.2E1,4.2E1,1.2E1,2.3E1,4E1,2.8E1,1.6E1],"tree_param":{"num_deleted":"0","num_feature":"5","num_nodes":"21","size_leaf_vector":"1"}},{"base_weights":[1.3785472E-2,1.5276991E-1,-7.4512506E-1,-6.471435E-2,4.2285478E-1,-9.463215E-3,-7.52925E-1,3.427942E-2,-2.739625E-1,2.7777985E-1,5.4279554E-1,-4.167031E-2,-6.0260504E-1,5.365117E-3,-2.1956936E-3,-1.0444903E-2,-2.2316283E-2,1.9052649E-2,1.0862007E-2,2.8063798E-2,6.494522E-3,3.7685751E-3,-3.2112747E-2],"categories":[],"categories_nodes":[],"categories_segments":[],"categories_sizes":[],"default_left":[0,0,0,0,0,0,0,0,0,0,0,0,0,0,0,0,0,0,0,0,0,0,0],"id":7,"left_children":[1,3,5,7,9,-1,11,13,15,17,19,-1,21,-1,-1,-1,-1,-1,-1,-1,-1,-1,-1],"loss_changes":[3.2706146E1,1.5417039E1,6.560898E-2,3.0336738E0,1.8850689E0,0E0,6.638718E-2,5.757023E-1,4.3385506E-1,2.6108694E-1,4.0782738E-1,0E0,5.860419E-1,0E0,0E0,0E0,0E0,0E0,0E0,0E0,0E0,0E0,0E0],"parents":[2147483647,0,0,1,1,2,2,3,3,4,4,6,6,7,7,8,8,9,9,10,10,12,12],"right_children":[2,4,6,8,10,-1,12,14,16,18,20,-1,22,-1,-1,-1,-1,-1,-1,-1,-1,-1,-1],"split_conditions":[-7.2818913E0,3.9428893E-1,-1.6584406E1,4.8761284E-1,6.148533E-1,-9.463215E-3,3.8906325E-2,-2.0859713E1,-1.0545936E1,-1.6952608E1,6.737062E-1,-4.167031E-2,4.0522654E-2,5.365117E-3,-2.1956936E-3,-1.0444903E-2,-2.2316283E-2,1.9052649E-2,1.0862007E-2,2.8063798E-2,6.494522E-3,3.7685751E-3,-3.2112747E-2],"split_indices":[3,0,4,1,1,0,2,4,3,4,1,0,2,0,0,0,0,0,0,0,0,0,0],"split_type":[0,0,0,0,0,0,0,0,0,0,0,0,0,0,0,0,0,0,0,0,0,0,0],"sum_hessian":[3.08E2,2.61E2,4.7E1,1.45E2,1.16E2,1E0,4.6E1,9.9E1,4.6E1,5.4E1,6.2E1,2.7E1,1.9E1,5.1E1,4.8E1,3.5E1,1.1E1,1.8E1,3.6E1,5.9E1,3E0,1E0,1.8E1],"tree_param":{"num_deleted":"0","num_feature":"5","num_nodes":"23","size_leaf_vector":"1"}},{"base_weights":[-1.5545793E-2,1.2103177E-1,-7.23202E-1,-7.779703E-2,3.82024E-1,-7.833235E-1,-4.7255042E-1,1.1782072E-1,-1.7887089E-1,2.36469E-1,4.9506867E-1,-1.1297733E-2,-3.9614033E-2,-3.8666982E-2,-2.254884E-1,-1.9694983E-3,7.664555E-3,-1.2063469E-2,-9.357474E-4,2.5220662E-3,1.3278976E-2,2.9282173E-2,1.7966053E-2,3.6743642E-3,-1.393487E-2],"categories":[],"categories_nodes":[],"categories_segments":[],"categories_sizes":[],"default_left":[0,0,0,0,0,0,0,0,0,0,0,0,0,0,0,0,0,0,0,0,0,0,0,0,0],"id":8,"left_children":[1,3,5,7,9,11,13,15,17,19,21,-1,-1,-1,23,-1,-1,-1,-1,-1,-1,-1,-1,-1,-1],"loss_changes":[2.927582E1,1.3210483E1,3.68248E-1,2.887992E0,1.6928959E0,1.0694504E-2,7.1738434E-1,2.848544E-1,9.548595E-1,2.573719E-1,5.3958035E-1,0E0,0E0,0E0,1.477463E-1,0E0,0E0,0E0,0E0,0E0,0E0,0E0,0E0,0E0,0E0],"parents":[2147483647,0,0,1,1,2,2,3,3,4,4,5,5,6,6,7,7,8,8,9,9,10,10,14,14],"right_children":[2,4,6,8,10,12,14,16,18,20,22,-1,-1,-1,24,-1,-1,-1,-1,-1,-1,-1,-1,-1,-1],"split_conditions":[-7.2818913E0,3.9428893E-1,2.9307312E-1,-2.07049E1,6.148533E-1,-1.6630955E1,-6.96294E0,2.3780361E-1,-8.932866E0,-2.4678212E-1,8.0188885E-2,-1.1297733E-2,-3.9614033E-2,-3.8666982E-2,2.9880637E-1,-1.9694983E-3,7.664555E-3,-1.2063469E-2,-9.357474E-4,2.5220662E-3,1.3278976E-2,2.9282173E-2,1.7966053E-2,3.6743642E-3,-1.393487E-2],"split_indices":[3,0,1,4,1,4,3,0,3,2,2,0,0,0,1,0,0,0,0,0,0,0,0,0,0],"split_type":[0,0,0,0,0,0,0,0,0,0,0,0,0,0,0,0,0,0,0,0,0,0,0,0,0],"sum_hessian":[3.01E2,2.53E2,4.8E1,1.44E2,1.09E2,3.7E1,1.1E1,4.9E1,9.5E1,4.9E1,6E1,1E0,3.6E1,4E0,7E0,9E0,4E1,6.8E1,2.7E1,7E0,4.2E1,3.4E1,2.6E1,1E0,6E0],"tree_param":{"num_deleted":"0","num_feature":"5","num_nodes":"25","size_leaf_vector":"1"}},{"base_weights":[1.2573984E-2,1.2875143E-1,-6.796067E-1,-1.8767294E-2,4.358739E-1,-7.720809E-1,-4.818796E-1,1.7772281E-1,-7.536819E-2,6.208878E-1,3.7861103E-1,-9.318495E-3,-3.9317157E-2,-9.9103846E-2,-5.2630943E-1,3.586512E-3,1.4833788E-2,-8.748337E-3,5.8618276E-3,3.6345553E-2,2.1115817E-2,3.0197788E-2,1.37153985E-2,3.5825016E-3,-1.101529E-2,-2.7319837E-2,-6.127191E-3],"categories":[],"categories_nodes":[],"categories_segments":[],"categories_sizes":[],"default_left":[0,0,0,0,0,0,0,0,0,0,0,0,0,0,0,0,0,0,0,0,0,0,0,0,0,0,0],"id":9,"left_children":[1,3,5,7,9,11,13,15,17,19,21,-1,-1,23,25,-1,-1,-1,-1,-1,-1,-1,-1,-1,-1,-1,-1],"loss_changes":[2.5177223E1,1.2150272E1,4.507599E-1,2.0375106E0,6.866398E-1,9.570122E-2,2.3695445E-1,4.956528E-1,2.7445202E0,9.302378E-2,1.4561157E0,0E0,0E0,7.787202E-2,5.470085E-2,0E0,0E0,0E0,0E0,0E0,0E0,0E0,0E0,0E0,0E0,0E0,0E0],"parents":[2147483647,0,0,1,1,2,2,3,3,4,4,5,5,6,6,7,7,8,8,9,9,10,10,13,13,14,14],"right_children":[2,4,6,8,10,12,14,16,18,20,22,-1,-1,24,26,-1,-1,-1,-1,-1,-1,-1,-1,-1,-1,-1,-1],"split_conditions":[-7.2818913E0,5.963788E-1,3.8906325E-2,-2.1085896E1,-2.8019223E-1,-1.6584406E1,4.0522654E-2,-2.1604652E1,3.664648E-1,-1.0665446E1,4.6624383E-1,-9.318495E-3,-3.9317157E-2,1.6367878E-1,1.7108937E-1,3.586512E-3,1.4833788E-2,-8.748337E-3,5.8618276E-3,3.6345553E-2,2.1115817E-2,3.0197788E-2,1.37153985E-2,3.5825016E-3,-1.101529E-2,-2.7319837E-2,-6.127191E-3],"split_indices":[3,1,2,4,2,4,2,4,0,3,0,0,0,0,0,0,0,0,0,0,0,0,0,0,0,0,0],"split_type":[0,0,0,0,0,0,0,0,0,0,0,0,0,0,0,0,0,0,0,0,0,0,0,0,0,0,0],"sum_hessian":[3.11E2,2.67E2,4.4E1,1.81E2,8.6E1,2.8E1,1.6E1,4E1,1.41E2,1.8E1,6.8E1,1E0,2.7E1,2E0,1.4E1,2.2E1,1.8E1,9.3E1,4.8E1,1E1,8E0,2E1,4.8E1,1E0,1E0,1.3E1,1E0],"tree_param":{"num_deleted":"0","num_feature":"5","num_nodes":"27","size_leaf_vector":"1"}},{"base_weights":[5.4546488E-3,1.2208651E-1,-6.3970226E-1,-4.127665E-2,4.1089368E-1,-7.198122E-1,-4.875522E-1,1.4833748E-1,-9.8984875E-2,2.8091037E-1,4.994622E-1,-3.6624867E-2,-8.798594E-3,-9.66262E-2,-5.256203E-1,-1.9057356E-3,1.2868601E-2,-8.298499E-3,4.055517E-3,1.616528E-2,6.6020708E-3,3.380659E-2,2.212583E-2,3.4929395E-3,-1.0739905E-2,-2.824129E-2,-7.065877E-3],"categories":[],"categories_nodes":[],"categories_segments":[],"categories_sizes":[],"default_left":[0,0,0,0,0,0,0,0,0,0,0,0,0,0,0,0,0,0,0,0,0,0,0,0,0,0,0],"id":10,"left_children":[1,3,5,7,9,11,13,15,17,19,21,-1,-1,23,25,-1,-1,-1,-1,-1,-1,-1,-1,-1,-1,-1,-1],"loss_changes":[2.4081524E1,1.2802864E1,2.4630165E-1,1.9186426E0,9.8791313E-1,7.806206E-2,2.4684763E-1,8.433285E-1,1.6299967E0,2.223866E-1,2.742529E-1,0E0,0E0,7.402707E-2,1.9138193E-1,0E0,0E0,0E0,0E0,0E0,0E0,0E0,0E0,0E0,0E0,0E0,0E0],"parents":[2147483647,0,0,1,1,2,2,3,3,4,4,5,5,6,6,7,7,8,8,9,9,10,10,13,13,14,14],"right_children":[2,4,6,8,10,12,14,16,18,20,22,-1,-1,24,26,-1,-1,-1,-1,-1,-1,-1,-1,-1,-1,-1,-1],"split_conditions":[-7.2818913E0,5.864021E-1,3.8906325E-2,-2.1085896E1,6.2552506E-1,3.1415886E-1,4.0522654E-2,2.382812E-1,3.7525135E-1,-1.674944E1,-3.0579576E-1,-3.6624867E-2,-8.798594E-3,1.6367878E-1,1.74197E-1,-1.9057356E-3,1.2868601E-2,-8.298499E-3,4.055517E-3,1.616528E-2,6.6020708E-3,3.380659E-2,2.212583E-2,3.4929395E-3,-1.0739905E-2,-2.824129E-2,-7.065877E-3],"split_indices":[3,1,2,4,1,1,2,0,0,4,2,0,0,0,0,0,0,0,0,0,0,0,0,0,0,0,0],"split_type":[0,0,0,0,0,0,0,0,0,0,0,0,0,0,0,0,0,0,0,0,0,0,0,0,0,0,0],"sum_hessian":[3.18E2,2.7E2,4.8E1,1.73E2,9.7E1,2.9E1,1.9E1,4E1,1.33E2,4.1E1,5.6E1,2.8E1,1E0,2E0,1.7E1,1.5E1,2.5E1,9.7E1,3.6E1,3.1E1,1E1,1.1E1,4.5E1,1E0,1E0,1.5E1,2E0],"tree_param":{"num_deleted":"0","num_feature":"5","num_nodes":"27","size_leaf_vector":"1"}},{"base_weights":[-1.546266E-2,-6.146424E-1,1.098391E-1,-4.932357E-1,-3.7612934E-2,-6.655597E-2,3.253254E-1,-5.264371E-1,-1.4581758E-1,4.5979735E-2,-2.2135885E-1,4.0900782E-1,1.7451824E-1,-2.7435318E-2,-1.30606145E-2,-5.10788E-4,-9.380647E-3,-1.2815239E-2,4.1824947E-3,-1.20622115E-2,5.1216665E-3,2.100691E-2,-8.974708E-3,1.560288E-3,1.04157515E-2],"categories":[],"categories_nodes":[],"categories_segments":[],"categories_sizes":[],"default_left":[0,0,0,0,0,0,0,0,0,0,0,0,0,0,0,0,0,0,0,0,0,0,0,0,0],"id":11,"left_children":[1,3,5,7,-1,9,11,13,15,17,19,21,23,-1,-1,-1,-1,-1,-1,-1,-1,-1,-1,-1,-1],"loss_changes":[2.2140524E1,4.8104286E-1,9.296268E0,2.69279E-1,0E0,2.361993E0,1.3168106E0,1.6142368E-2,2.0753488E-2,9.21021E-1,3.9171863E-1,5.339289E-1,1.9208276E-1,0E0,0E0,0E0,0E0,0E0,0E0,0E0,0E0,0E0,0E0,0E0,0E0],"parents":[2147483647,0,0,1,1,2,2,3,3,5,5,6,6,7,7,8,8,9,9,10,10,11,11,12,12],"right_children":[2,4,6,8,-1,10,12,14,16,18,20,22,24,-1,-1,-1,-1,-1,-1,-1,-1,-1,-1,-1,-1],"split_conditions":[2.1838908E-1,-6.695616E0,3.9428893E-1,6.874199E-2,-3.7612934E-2,4.5263433E-1,-1.695719E1,1.74197E-1,1.6961084E-1,-1.0965668E-2,-8.9876995E0,1.5002248E-1,-1.6902592E1,-2.7435318E-2,-1.30606145E-2,-5.10788E-4,-9.380647E-3,-1.2815239E-2,4.1824947E-3,-1.20622115E-2,5.1216665E-3,2.100691E-2,-8.974708E-3,1.560288E-3,1.04157515E-2],"split_indices":[0,3,0,2,0,1,4,0,0,2,3,2,4,0,0,0,0,0,0,0,0,0,0,0,0],"split_type":[0,0,0,0,0,0,0,0,0,0,0,0,0,0,0,0,0,0,0,0,0,0,0,0,0],"sum_hessian":[2.93E2,5E1,2.43E2,2.9E1,2.1E1,1.34E2,1.09E2,2.6E1,3E0,7.8E1,5.6E1,6.9E1,4E1,2.3E1,3E0,1E0,2E0,8E0,7E1,5.3E1,3E0,6.8E1,1E0,8E0,3.2E1],"tree_param":{"num_deleted":"0","num_feature":"5","num_nodes":"25","size_leaf_vector":"1"}},{"base_weights":[-1.0714022E-2,1.02659635E-1,-6.005011E-1,-3.3642743E-2,3.5726455E-1,-5.2352446E-1,-3.777741E-2,8.2945965E-2,-8.561662E-2,5.52886E-1,2.8071636E-1,-5.5015886E-1,-1.2417972E-2,-5.6305896E-3,7.221429E-3,-8.994725E-3,3.6372386E-3,1.3946001E-2,3.1435624E-2,8.981596E-3,2.196548E-2,-2.7902916E-2,-7.6319217E-3],"categories":[],"categories_nodes":[],"categories_segments":[],"categories_sizes":[],"default_left":[0,0,0,0,0,0,0,0,0,0,0,0,0,0,0,0,0,0,0,0,0,0,0],"id":12,"left_children":[1,3,5,7,9,11,-1,13,15,17,19,21,-1,-1,-1,-1,-1,-1,-1,-1,-1,-1,-1],"loss_changes":[2.0322144E1,8.861349E0,1.892662E-1,1.0190494E0,1.1775236E0,1.2720203E-1,0E0,6.414813E-1,1.7449634E0,3.2321215E-1,9.791517E-1,1.5303612E-2,0E0,0E0,0E0,0E0,0E0,0E0,0E0,0E0,0E0,0E0,0E0],"parents":[2147483647,0,0,1,1,2,2,3,3,4,4,5,5,7,7,8,8,9,9,10,10,11,11],"right_children":[2,4,6,8,10,12,-1,14,16,18,20,22,-1,-1,-1,-1,-1,-1,-1,-1,-1,-1,-1],"split_conditions":[-7.2818913E0,5.957847E-1,-1.6124905E1,-2.07049E1,4.559296E-1,3.1537992E-1,-3.777741E-2,2.3780361E-1,3.7525135E-1,-1.7703178E1,5.055978E-1,-6.4525285E0,-1.2417972E-2,-5.6305896E-3,7.221429E-3,-8.994725E-3,3.6372386E-3,1.3946001E-2,3.1435624E-2,8.981596E-3,2.196548E-2,-2.7902916E-2,-7.6319217E-3],"split_indices":[3,1,4,4,0,1,0,0,0,4,0,3,0,0,0,0,0,0,0,0,0,0,0],"split_type":[0,0,0,0,0,0,0,0,0,0,0,0,0,0,0,0,0,0,0,0,0,0,0],"sum_hessian":[3.02E2,2.54E2,4.8E1,1.66E2,8.8E1,3.5E1,1.3E1,5.1E1,1.15E2,2.3E1,6.5E1,3.1E1,4E0,1.2E1,3.9E1,7.2E1,4.3E1,6E0,1.7E1,4.1E1,2.4E1,3E1,1E0],"tree_param":{"num_deleted":"0","num_feature":"5","num_nodes":"23","size_leaf_vector":"1"}},{"base_weights":[8.500287E-3,-5.9284127E-1,1.1584898E-1,-2.8100714E-1,-6.247954E-1,-2.2096578E-2,3.6873913E-1,-1.6940251E-2,1.9955635E-4,-3.2042556E-2,-1.0657898E-2,1.535097E-1,-7.093169E-2,4.4790524E-1,2.7363336E-1,-3.5030898E-3,1.2109672E-2,-8.131337E-3,2.9717078E-3,2.3683857E-2,2.621925E-3,1.5318791E-2,6.7472793E-3],"categories":[],"categories_nodes":[],"categories_segments":[],"categories_sizes":[],"default_left":[0,0,0,0,0,0,0,0,0,0,0,0,0,0,0,0,0,0,0,0,0,0,0],"id":13,"left_children":[1,3,5,7,9,11,13,-1,-1,-1,-1,15,17,19,21,-1,-1,-1,-1,-1,-1,-1,-1],"loss_changes":[1.9176435E1,2.7282524E-1,8.799186E0,1.0018599E-1,1.2776184E-1,1.4173121E0,5.475321E-1,0E0,0E0,0E0,0E0,7.307459E-1,1.5517192E0,4.5418072E-1,1.5391827E-1,0E0,0E0,0E0,0E0,0E0,0E0,0E0,0E0],"parents":[2147483647,0,0,1,1,2,2,3,3,4,4,5,5,6,6,11,11,12,12,13,13,14,14],"right_children":[2,4,6,8,10,12,14,-1,-1,-1,-1,16,18,20,22,-1,-1,-1,-1,-1,-1,-1,-1],"split_conditions":[1.8195832E-1,-1.649123E1,5.957847E-1,2.9880637E-1,1.74197E-1,-2.1085896E1,-1.7190287E1,-1.6940251E-2,1.9955635E-4,-3.2042556E-2,-1.0657898E-2,2.3780361E-1,3.6157387E-1,6.737062E-1,-1.7427367E-1,-3.5030898E-3,1.2109672E-2,-8.131337E-3,2.9717078E-3,2.3683857E-2,2.621925E-3,1.5318791E-2,6.7472793E-3],"split_indices":[0,4,1,1,0,4,4,0,0,0,0,0,0,1,2,0,0,0,0,0,0,0,0],"split_type":[0,0,0,0,0,0,0,0,0,0,0,0,0,0,0,0,0,0,0,0,0,0,0],"sum_hessian":[2.95E2,4.4E1,2.51E2,5E0,3.9E1,1.63E2,8.8E1,4E0,1E0,3.7E1,2E0,3.5E1,1.28E2,4.6E1,4.2E1,1E1,2.5E1,7.5E1,5.3E1,4.3E1,3E0,3.3E1,9E0],"tree_param":{"num_deleted":"0","num_feature":"5","num_nodes":"23","size_leaf_vector":"1"}},{"base_weights":[-2.6521277E-2,7.245403E-2,-5.2085656E-1,-6.631854E-2,2.812896E-1,-5.6997085E-1,-2.3924059E-1,9.991212E-3,-1.9933906E-1,4.9120376E-1,2.2791888E-1,-3.1616952E-2,-4.1971004E-1,-1.4225866E-2,-5.5757673E-3,4.0230607E-3,-2.0261458E-3,-7.3437258E-3,-2.0774784E-2,2.843753E-2,8.016123E-3,2.1450596E-2,6.9624777E-3,-9.907748E-3,-2.944007E-2],"categories":[],"categories_nodes":[],"categories_segments":[],"categories_sizes":[],"default_left":[0,0,0,0,0,0,0,0,0,0,0,0,0,0,0,0,0,0,0,0,0,0,0,0,0],"id":14,"left_children":[1,3,5,7,9,11,13,15,17,19,21,-1,23,-1,-1,-1,-1,-1,-1,-1,-1,-1,-1,-1,-1],"loss_changes":[1.4373344E1,7.118914E0,5.4137707E-1,1.5043046E0,9.859662E-1,1.1883259E-1,2.0318747E-2,3.4143493E-1,5.513644E-1,3.963337E-1,1.3667231E0,0E0,4.4527173E-1,0E0,0E0,0E0,0E0,0E0,0E0,0E0,0E0,0E0,0E0,0E0,0E0],"parents":[2147483647,0,0,1,1,2,2,3,3,4,4,5,5,6,6,7,7,8,8,9,9,10,10,12,12],"right_children":[2,4,6,8,10,12,14,16,18,20,22,-1,24,-1,-1,-1,-1,-1,-1,-1,-1,-1,-1,-1,-1],"split_conditions":[-7.2818913E0,3.9428893E-1,1.7406613E-1,4.8761284E-1,-2.8019223E-1,3.8906325E-2,2.801695E-1,-2.1085896E1,-1.054037E1,-1.0562642E1,4.6624383E-1,-3.1616952E-2,4.8329733E-2,-1.4225866E-2,-5.5757673E-3,4.0230607E-3,-2.0261458E-3,-7.3437258E-3,-2.0774784E-2,2.843753E-2,8.016123E-3,2.1450596E-2,6.9624777E-3,-9.907748E-3,-2.944007E-2],"split_indices":[3,0,0,1,2,2,1,4,3,3,0,0,2,0,0,0,0,0,0,0,0,0,0,0,0],"split_type":[0,0,0,0,0,0,0,0,0,0,0,0,0,0,0,0,0,0,0,0,0,0,0,0,0],"sum_hessian":[2.92E2,2.44E2,4.8E1,1.47E2,9.7E1,4E1,8E0,9.4E1,5.3E1,1.8E1,7.9E1,2.6E1,1.4E1,5E0,3E0,3.9E1,5.5E1,4.4E1,9E0,1.4E1,4E0,2.3E1,5.6E1,7E0,7E0],"tree_param":{"num_deleted":"0","num_feature":"5","num_nodes":"25","size_leaf_vector":"1"}},{"base_weights":[-8.206102E-3,8.99798E-2,-5.407422E-1,-1.0021515E-3,3.615197E-1,-3.710584E-1,-6.08686E-1,-6.1537232E-2,1.0780005E-1,4.863018E-1,2.8457904E-1,-2.7250646E-2,-2.6765585E-1,-6.2380826E-1,-3.4973621E-3,3.1722502E-3,-9.177942E-3,1.1254913E-2,3.6924817E-3,1.4377019E-2,2.6976941E-2,3.8920105E-3,1.982755E-2,-1.705723E-2,-4.827132E-3,-2.4616048E-2,-3.6562E-2],"categories":[],"categories_nodes":[],"categories_segments":[],"categories_sizes":[],"default_left":[0,0,0,0,0,0,0,0,0,0,0,0,0,0,0,0,0,0,0,0,0,0,0,0,0,0,0],"id":15,"left_children":[1,3,5,7,9,11,13,15,17,19,21,-1,23,25,-1,-1,-1,-1,-1,-1,-1,-1,-1,-1,-1,-1,-1],"loss_changes":[1.5787205E1,6.300196E0,3.1600285E-1,1.271213E0,4.7606087E-1,1.4192176E-1,2.1706963E-1,1.9027119E0,2.5815684E-1,8.823395E-2,9.413886E-1,0E0,1.1796379E-1,7.7898026E-2,0E0,0E0,0E0,0E0,0E0,0E0,0E0,0E0,0E0,0E0,0E0,0E0,0E0],"parents":[2147483647,0,0,1,1,2,2,3,3,4,4,5,5,6,6,7,7,8,8,9,9,10,10,12,12,13,13],"right_children":[2,4,6,8,10,12,14,16,18,20,22,-1,24,26,-1,-1,-1,-1,-1,-1,-1,-1,-1,-1,-1,-1,-1],"split_conditions":[-7.2818913E0,6.124394E-1,-1.6279535E1,3.7525135E-1,4.559296E-1,-6.96294E0,3.1911665E-1,3.7372404E-1,-1.6952608E1,-1.7707922E1,4.8959383E-1,-2.7250646E-2,3.931017E-2,-6.7606125E0,-3.4973621E-3,3.1722502E-3,-9.177942E-3,1.1254913E-2,3.6924817E-3,1.4377019E-2,2.6976941E-2,3.8920105E-3,1.982755E-2,-1.705723E-2,-4.827132E-3,-2.4616048E-2,-3.6562E-2],"split_indices":[3,1,4,0,0,3,1,1,4,4,0,0,2,3,0,0,0,0,0,0,0,0,0,0,0,0,0],"split_type":[0,0,0,0,0,0,0,0,0,0,0,0,0,0,0,0,0,0,0,0,0,0,0,0,0,0,0],"sum_hessian":[3E2,2.54E2,4.6E1,1.91E2,6.3E1,1.5E1,3.1E1,1.23E2,6.8E1,2.2E1,4.1E1,4E0,1.1E1,3E1,1E0,6.1E1,6.2E1,1.4E1,5.4E1,6E0,1.6E1,1.5E1,2.6E1,7E0,4E0,1.6E1,1.4E1],"tree_param":{"num_deleted":"0","num_feature":"5","num_nodes":"27","size_leaf_vector":"1"}},{"base_weights":[-6.318893E-3,9.324625E-2,-4.8979208E-1,-5.403321E-2,2.771606E-1,-5.233348E-1,-1.0688675E-2,1.7268905E-2,-1.5546654E-1,3.4769663E-1,1.4178836E-1,-2.8512803E-1,-5.542568E-1,-7.437527E-3,2.174275E-3,-8.526157E-3,8.117756E-3,1.9739924E-2,1.2450273E-2,2.5984305E-3,9.600893E-3,-1.6982883E-2,1.0512471E-3,-9.8502245E-3,-2.8452126E-2],"categories":[],"categories_nodes":[],"categories_segments":[],"categories_sizes":[],"default_left":[0,0,0,0,0,0,0,0,0,0,0,0,0,0,0,0,0,0,0,0,0,0,0,0,0],"id":16,"left_children":[1,3,5,7,9,11,-1,13,15,17,19,21,23,-1,-1,-1,-1,-1,-1,-1,-1,-1,-1,-1,-1],"loss_changes":[1.3812876E1,6.461635E0,3.4178638E-1,9.6459544E-1,9.628544E-1,1.5869713E-1,0E0,3.5031316E-1,2.908771E-1,2.2244167E-1,1.6146195E-1,1.2400222E-1,8.333874E-2,0E0,0E0,0E0,0E0,0E0,0E0,0E0,0E0,0E0,0E0,0E0,0E0],"parents":[2147483647,0,0,1,1,2,2,3,3,4,4,5,5,7,7,8,8,9,9,10,10,11,11,12,12],"right_children":[2,4,6,8,10,12,-1,14,16,18,20,22,24,-1,-1,-1,-1,-1,-1,-1,-1,-1,-1,-1,-1],"split_conditions":[-7.2818913E0,3.9428893E-1,1.74197E-1,4.4912106E-1,-1.695719E1,-1.6449831E1,-1.0688675E-2,-1.0965668E-2,1.868694E-1,6.435262E-1,5.9436834E-1,1.6903298E-1,2.2960255E-1,-7.437527E-3,2.174275E-3,-8.526157E-3,8.117756E-3,1.9739924E-2,1.2450273E-2,2.5984305E-3,9.600893E-3,-1.6982883E-2,1.0512471E-3,-9.8502245E-3,-2.8452126E-2],"split_indices":[3,0,0,1,4,4,0,2,2,1,1,0,1,0,0,0,0,0,0,0,0,0,0,0,0],"split_type":[0,0,0,0,0,0,0,0,0,0,0,0,0,0,0,0,0,0,0,0,0,0,0,0,0],"sum_hessian":[2.85E2,2.37E2,4.8E1,1.32E2,1.05E2,4.2E1,6E0,7.8E1,5.4E1,6.8E1,3.7E1,6E0,3.6E1,1E1,6.8E1,5.2E1,2E0,4.4E1,2.4E1,1.4E1,2.3E1,5E0,1E0,2E0,3.4E1],"tree_param":{"num_deleted":"0","num_feature":"5","num_nodes":"25","size_leaf_vector":"1"}},{"base_weights":[-2.290097E-3,-1.839926E-1,2.2664446E-1,-2.0829093E-2,-3.686335E-1,1.1842238E-1,3.574712E-1,1.1492129E-1,-1.2086779E-1,-4.4288462E-1,-4.2103402E-2,1.736821E-1,5.662147E-2,3.8356277E-1,1.7569797E-1,-1.0561852E-3,9.053391E-3,-8.0069555E-3,3.7914037E-3,-2.624376E-2,-1.6375368E-2,-1.2833997E-2,5.3264917E-4,2.102127E-3,1.0724665E-2,1.0646122E-3,8.659804E-3,2.0106403E-2,3.7085654E-3,1.242041E-2,-1.0149598E-2],"categories":[],"categories_nodes":[],"categories_segments":[],"categories_sizes":[],"default_left":[0,0,0,0,0,0,0,0,0,0,0,0,0,0,0,0,0,0,0,0,0,0,0,0,0,0,0,0,0,0,0],"id":17,"left_children":[1,3,5,7,9,11,13,15,17,19,21,23,25,27,29,-1,-1,-1,-1,-1,-1,-1,-1,-1,-1,-1,-1,-1,-1,-1,-1],"loss_changes":[1.1938724E1,4.812587E0,1.7557769E0,1.1817952E0,1.7997446E0,2.3263794E-1,2.0294571E-1,3.367843E-1,3.9836836E-1,4.051504E-1,1.7253864E-1,1.8975973E-1,1.4045945E-1,2.5162697E-1,2.9823655E-1,0E0,0E0,0E0,0E0,0E0,0E0,0E0,0E0,0E0,0E0,0E0,0E0,0E0,0E0,0E0,0E0],"parents":[2147483647,0,0,1,1,2,2,3,3,4,4,5,5,6,6,7,7,8,8,9,9,10,10,11,11,12,12,13,13,14,14],"right_children":[2,4,6,8,10,12,14,16,18,20,22,24,26,28,30,-1,-1,-1,-1,-1,-1,-1,-1,-1,-1,-1,-1,-1,-1,-1,-1],"split_conditions":[3.63423E-1,-1.054037E1,6.141244E-1,-2.1085896E1,-1.5745705E1,-1.7427367E-1,1.2813705E-1,-1.3940282E1,-1.0615485E1,3.8906325E-2,-9.057155E0,5.864021E-1,-8.899268E0,6.737062E-1,-1.0853896E1,-1.0561852E-3,9.053391E-3,-8.0069555E-3,3.7914037E-3,-2.624376E-2,-1.6375368E-2,-1.2833997E-2,5.3264917E-4,2.102127E-3,1.0724665E-2,1.0646122E-3,8.659804E-3,2.0106403E-2,3.7085654E-3,1.242041E-2,-1.0149598E-2],"split_indices":[0,3,1,4,4,2,2,3,3,2,3,1,3,1,3,0,0,0,0,0,0,0,0,0,0,0,0,0,0,0,0],"split_type":[0,0,0,0,0,0,0,0,0,0,0,0,0,0,0,0,0,0,0,0,0,0,0,0,0,0,0,0,0,0,0],"sum_hessian":[2.85E2,1.59E2,1.26E2,8.5E1,7.4E1,7E1,5.6E1,3.6E1,4.9E1,6E1,1.4E1,3.6E1,3.4E1,4.8E1,8E0,1.2E1,2.4E1,4.1E1,8E0,3.3E1,2.7E1,2E0,1.2E1,9E0,2.7E1,2.7E1,7E0,4.5E1,3E0,7E0,1E0],"tree_param":{"num_deleted":"0","num_feature":"5","num_nodes":"31","size_leaf_vector":"1"}},{"base_weights":[-1.6531191E-3,8.5606836E-2,-4.518814E-1,-2.4248509E-2,2.3599853E-1,-3.6342403E-1,-2.944744E-2,4.699755E-2,-1.4816439E-1,3.981858E-1,1.7773947E-1,-2.3895456E-2,-2.539135E-1,-6.764918E-3,3.6090265E-3,-8.694153E-3,2.6516335E-3,2.0698577E-2,-7.0073607E-4,2.095867E-3,1.2369476E-2,2.4110952E-3,-1.4614771E-2],"categories":[],"categories_nodes":[],"categories_segments":[],"categories_sizes":[],"default_left":[0,0,0,0,0,0,0,0,0,0,0,0,0,0,0,0,0,0,0,0,0,0,0],"id":18,"left_children":[1,3,5,7,9,11,-1,13,15,17,19,-1,21,-1,-1,-1,-1,-1,-1,-1,-1,-1,-1],"loss_changes":[1.2099762E1,4.2682257E0,3.9219284E-1,1.331241E0,9.591546E-1,2.9238367E-1,0E0,4.5047826E-1,2.9382026E-1,1.8799496E-1,7.653513E-1,0E0,2.3442924E-1,0E0,0E0,0E0,0E0,0E0,0E0,0E0,0E0,0E0,0E0],"parents":[2147483647,0,0,1,1,2,2,3,3,4,4,5,5,7,7,8,8,9,9,10,10,12,12],"right_children":[2,4,6,8,10,12,-1,14,16,18,20,-1,22,-1,-1,-1,-1,-1,-1,-1,-1,-1,-1],"split_conditions":[-7.2818913E0,3.9428893E-1,-6.695616E0,4.5263433E-1,4.6624383E-1,-6.96294E0,-2.944744E-2,-1.0965668E-2,5.4774606E-1,6.737062E-1,4.8959383E-1,-2.3895456E-2,-6.9313684E0,-6.764918E-3,3.6090265E-3,-8.694153E-3,2.6516335E-3,2.0698577E-2,-7.0073607E-4,2.095867E-3,1.2369476E-2,2.4110952E-3,-1.4614771E-2],"split_indices":[3,0,3,1,0,3,0,2,1,1,0,0,3,0,0,0,0,0,0,0,0,0,0],"split_type":[0,0,0,0,0,0,0,0,0,0,0,0,0,0,0,0,0,0,0,0,0,0,0],"sum_hessian":[3.06E2,2.57E2,4.9E1,1.49E2,1.08E2,3.2E1,1.7E1,9.5E1,5.4E1,2.7E1,8.1E1,1.4E1,1.8E1,1.1E1,8.4E1,4.8E1,6E0,2.6E1,1E0,2.8E1,5.3E1,2E0,1.6E1],"tree_param":{"num_deleted":"0","num_feature":"5","num_nodes":"23","size_leaf_vector":"1"}},{"base_weights":[1.9515477E-2,9.6826985E-2,-4.0948346E-1,-8.742608E-3,2.7472043E-1,-6.639536E-1,-3.3843833E-1,1.0809573E-1,-4.3256816E-2,4.4765827E-1,2.2847967E-1,-6.7910017E-3,-3.564964E-2,-2.715965E-1,-4.9843577E-1,-1.3460509E-3,9.117576E-3,-6.132131E-3,3.527358E-3,7.0426944E-3,2.377337E-2,1.8658822E-2,7.5868727E-3,-1.709304E-2,-8.5947355E-3,-2.7711345E-2,9.211302E-5],"categories":[],"categories_nodes":[],"categories_segments":[],"categories_sizes":[],"default_left":[0,0,0,0,0,0,0,0,0,0,0,0,0,0,0,0,0,0,0,0,0,0,0,0,0,0,0],"id":19,"left_children":[1,3,5,7,9,11,13,15,17,19,21,-1,-1,23,25,-1,-1,-1,-1,-1,-1,-1,-1,-1,-1,-1,-1],"loss_changes":[9.989616E0,4.7913375E0,6.069212E-1,6.5392166E-1,6.57413E-1,1.3625479E-1,2.7101803E-1,3.7586272E-1,1.1379546E0,9.513569E-2,7.9840994E-1,0E0,0E0,1.4439487E-1,2.8013158E-1,0E0,0E0,0E0,0E0,0E0,0E0,0E0,0E0,0E0,0E0,0E0,0E0],"parents":[2147483647,0,0,1,1,2,2,3,3,4,4,5,5,6,6,7,7,8,8,9,9,10,10,13,13,14,14],"right_children":[2,4,6,8,10,12,14,16,18,20,22,-1,-1,24,26,-1,-1,-1,-1,-1,-1,-1,-1,-1,-1,-1,-1],"split_conditions":[-8.575625E0,5.957847E-1,2.4533E-1,-2.1085896E1,-2.8019223E-1,-6.7212796E0,-1.6124905E1,2.382812E-1,3.6157387E-1,-1.0972896E1,4.6624383E-1,-6.7910017E-3,-3.564964E-2,3.6669746E-2,1.7384873E-1,-1.3460509E-3,9.117576E-3,-6.132131E-3,3.527358E-3,7.0426944E-3,2.377337E-2,1.8658822E-2,7.5868727E-3,-1.709304E-2,-8.5947355E-3,-2.7711345E-2,9.211302E-5],"split_indices":[3,1,1,4,2,3,4,0,0,3,0,0,0,2,0,0,0,0,0,0,0,0,0,0,0,0,0],"split_type":[0,0,0,0,0,0,0,0,0,0,0,0,0,0,0,0,0,0,0,0,0,0,0,0,0,0,0],"sum_hessian":[2.99E2,2.54E2,4.5E1,1.6E2,9.4E1,8E0,3.7E1,3.6E1,1.24E2,1.8E1,7.6E1,1E0,7E0,2.8E1,9E0,1.3E1,2.3E1,7.3E1,5.1E1,2E0,1.6E1,2.5E1,5.1E1,1.5E1,1.3E1,8E0,1E0],"tree_param":{"num_deleted":"0","num_feature":"5","num_nodes":"27","size_leaf_vector":"1"}},{"base_weights":[-1.0395611E-2,5.742182E-2,-4.00857E-1,-4.3062653E-2,1.9722065E-1,-3.350463E-1,-2.7970005E-2,9.458842E-2,-9.339846E-2,3.7519962E-1,1.4901014E-1,-3.7413245E-1,-1.9991767E-1,-3.1728577E-3,7.6358058E-3,-6.549702E-3,1.6297235E-3,2.4243306E-2,9.20733E-3,1.4629607E-2,5.0182906E-3,-2.1230573E-2,-1.158021E-2,-1.1602719E-2,-2.379028E-3],"categories":[],"categories_nodes":[],"categories_segments":[],"categories_sizes":[],"default_left":[0,0,0,0,0,0,0,0,0,0,0,0,0,0,0,0,0,0,0,0,0,0,0,0,0],"id":20,"left_children":[1,3,5,7,9,11,-1,13,15,17,19,21,23,-1,-1,-1,-1,-1,-1,-1,-1,-1,-1,-1,-1],"loss_changes":[8.231845E0,3.7311103E0,2.92531E-1,1.082795E0,8.9652205E-1,1.100626E-1,0E0,3.9553756E-1,5.442623E-1,3.9261222E-1,5.922499E-1,8.8719845E-2,3.7914842E-2,0E0,0E0,0E0,0E0,0E0,0E0,0E0,0E0,0E0,0E0,0E0,0E0],"parents":[2147483647,0,0,1,1,2,2,3,3,4,4,5,5,7,7,8,8,9,9,10,10,11,11,12,12],"right_children":[2,4,6,8,10,12,-1,14,16,18,20,22,24,-1,-1,-1,-1,-1,-1,-1,-1,-1,-1,-1,-1],"split_conditions":[-7.2818913E0,3.9428893E-1,-1.6124905E1,-2.1085896E1,-2.794338E-1,1.7108937E-1,-2.7970005E-2,2.3627976E-1,3.7525135E-1,-1.0665446E1,4.559296E-1,2.9464698E-1,6.551314E-2,-3.1728577E-3,7.6358058E-3,-6.549702E-3,1.6297235E-3,2.4243306E-2,9.20733E-3,1.4629607E-2,5.0182906E-3,-2.1230573E-2,-1.158021E-2,-1.1602719E-2,-2.379028E-3],"split_indices":[3,0,4,4,2,0,0,0,0,3,0,1,2,0,0,0,0,0,0,0,0,0,0,0,0],"split_type":[0,0,0,0,0,0,0,0,0,0,0,0,0,0,0,0,0,0,0,0,0,0,0,0,0],"sum_hessian":[3.09E2,2.64E2,4.5E1,1.54E2,1.1E2,3.4E1,1.1E1,4.1E1,1.13E2,2.2E1,8.8E1,2.5E1,9E0,1.1E1,3E1,8.7E1,2.6E1,1.3E1,9E0,2.1E1,6.7E1,1.7E1,8E0,7E0,2E0],"tree_param":{"num_deleted":"0","num_feature":"5","num_nodes":"25","size_leaf_vector":"1"}},{"base_weights":[7.938222E-4,8.175842E-2,-3.9451948E-1,-1.34565905E-2,2.4439117E-1,-4.2782786E-1,-2.345047E-1,7.929178E-2,-4.8825912E-2,3.8812795E-1,1.9085386E-1,-2.1864546E-2,-1.6219862E-1,-2.1555504E-2,-1.429135E-1,-3.20209E-3,9.049294E-3,-5.171046E-3,2.806263E-3,2.1602444E-2,9.217855E-3,1.8917972E-2,6.5881163E-3,-1.4468992E-2,2.304095E-3,-8.23615E-3,7.8906416E-4],"categories":[],"categories_nodes":[],"categories_segments":[],"categories_sizes":[],"default_left":[0,0,0,0,0,0,0,0,0,0,0,0,0,0,0,0,0,0,0,0,0,0,0,0,0,0,0],"id":21,"left_children":[1,3,5,7,9,11,13,15,17,19,21,-1,23,-1,25,-1,-1,-1,-1,-1,-1,-1,-1,-1,-1,-1,-1],"loss_changes":[9.602163E0,3.8590732E0,1.7149305E-1,5.221821E-1,6.3389015E-1,3.213215E-2,1.3646907E-1,6.5294254E-1,6.647327E-1,1.35144E-1,7.146659E-1,0E0,9.2803285E-2,0E0,3.3749044E-2,0E0,0E0,0E0,0E0,0E0,0E0,0E0,0E0,0E0,0E0,0E0,0E0],"parents":[2147483647,0,0,1,1,2,2,3,3,4,4,5,5,6,6,7,7,8,8,9,9,10,10,12,12,14,14],"right_children":[2,4,6,8,10,12,14,16,18,20,22,-1,24,-1,26,-1,-1,-1,-1,-1,-1,-1,-1,-1,-1,-1,-1],"split_conditions":[-7.2818913E0,5.957847E-1,1.7384873E-1,-1.3321567E1,4.5274496E-1,7.1996436E-2,2.5002757E-1,2.3845659E-1,3.7525135E-1,1.2879026E-1,-3.0341357E-1,-2.1864546E-2,1.6216902E-1,-2.1555504E-2,-1.6149336E1,-3.20209E-3,9.049294E-3,-5.171046E-3,2.806263E-3,2.1602444E-2,9.217855E-3,1.8917972E-2,6.5881163E-3,-1.4468992E-2,2.304095E-3,-8.23615E-3,7.8906416E-4],"split_indices":[3,1,0,3,0,2,1,0,0,2,2,0,0,0,4,0,0,0,0,0,0,0,0,0,0,0,0],"split_type":[0,0,0,0,0,0,0,0,0,0,0,0,0,0,0,0,0,0,0,0,0,0,0,0,0,0,0],"sum_hessian":[2.98E2,2.48E2,5E1,1.57E2,9.1E1,4E1,1E1,4.3E1,1.14E2,2.3E1,6.8E1,3.8E1,2E0,2E0,8E0,1.8E1,2.5E1,7.5E1,3.9E1,1.8E1,5E0,1.5E1,5.3E1,1E0,1E0,7E0,1E0],"tree_param":{"num_deleted":"0","num_feature":"5","num_nodes":"27","size_leaf_vector":"1"}},{"base_weights":[2.5140736E-3,-1.1437504E-1,1.9320583E-1,-3.5636193E-1,-3.9117705E-2,1.21553615E-1,2.5346836E-1,-3.9078292E-1,-7.32319E-2,2.1701407E-2,-1.2607545E-1,-4.2713046E-2,1.4692765E-1,3.684254E-1,2.1779673E-1,-1.1171351E-2,-2.0722037E-2,9.5808506E-4,-6.2109563E-3,-1.1457306E-2,1.683661E-3,-6.9985874E-3,8.998967E-3,4.6398086E-3,-5.167441E-3,3.1773988E-3,9.39562E-3,1.9775098E-2,1.0876775E-3,2.5831065E-3,1.3226439E-2],"categories":[],"categories_nodes":[],"categories_segments":[],"categories_sizes":[],"default_left":[0,0,0,0,0,0,0,0,0,0,0,0,0,0,0,0,0,0,0,0,0,0,0,0,0,0,0,0,0,0,0],"id":22,"left_children":[1,3,5,7,9,11,13,15,17,19,21,23,25,27,29,-1,-1,-1,-1,-1,-1,-1,-1,-1,-1,-1,-1,-1,-1,-1,-1],"loss_changes":[6.686745E0,3.3733594E0,4.6143532E-1,4.0018892E-1,7.590191E-1,2.3135358E-1,1.6990113E-1,6.181431E-2,3.0645609E-2,2.6297957E-1,2.7612054E-1,7.5324014E-2,1.4867139E-1,1.1342311E-1,3.6676097E-1,0E0,0E0,0E0,0E0,0E0,0E0,0E0,0E0,0E0,0E0,0E0,0E0,0E0,0E0,0E0,0E0],"parents":[2147483647,0,0,1,1,2,2,3,3,4,4,5,5,6,6,7,7,8,8,9,9,10,10,11,11,12,12,13,13,14,14],"right_children":[2,4,6,8,10,12,14,16,18,20,22,24,26,28,30,-1,-1,-1,-1,-1,-1,-1,-1,-1,-1,-1,-1,-1,-1,-1,-1],"split_conditions":[3.9428893E-1,1.8403444E-1,6.148533E-1,6.461563E-2,4.5161107E-1,-2.4678212E-1,4.4471204E-1,1.6074103E-1,-1.6415697E1,3.0100217E-1,1.868694E-1,-1.0706573E1,5.890421E-1,-1.737785E1,-1.7452114E1,-1.1171351E-2,-2.0722037E-2,9.5808506E-4,-6.2109563E-3,-1.1457306E-2,1.683661E-3,-6.9985874E-3,8.998967E-3,4.6398086E-3,-5.167441E-3,3.1773988E-3,9.39562E-3,1.9775098E-2,1.0876775E-3,2.5831065E-3,1.3226439E-2],"split_indices":[0,0,1,2,1,2,0,0,4,1,2,3,1,4,4,0,0,0,0,0,0,0,0,0,0,0,0,0,0,0,0],"split_type":[0,0,0,0,0,0,0,0,0,0,0,0,0,0,0,0,0,0,0,0,0,0,0,0,0,0,0,0,0,0,0],"sum_hessian":[2.98E2,1.85E2,1.13E2,4.3E1,1.42E2,5.3E1,6E1,3.8E1,5E0,8.4E1,5.8E1,7E0,4.6E1,1.2E1,4.8E1,6E0,3.2E1,2E0,3E0,3E0,8.1E1,5.6E1,2E0,2E0,5E0,1.6E1,3E1,1.1E1,1E0,1.1E1,3.7E1],"tree_param":{"num_deleted":"0","num_feature":"5","num_nodes":"31","size_leaf_vector":"1"}},{"base_weights":[7.2778673E-3,7.066036E-2,-3.237243E-1,-1.7429063E-2,1.8440224E-1,-2.7349496E-1,-3.9128295E-1,4.8623804E-2,-1.17892265E-1,2.3116302E-1,9.873702E-2,-3.1749302E-1,-7.100292E-2,-1.4880963E-1,-4.4602185E-1,-6.12311E-3,3.115106E-3,-8.240128E-3,-9.4268056E-5,1.3248235E-2,5.6579923E-3,-7.583809E-3,6.0944348E-3,-1.7399566E-2,-5.990095E-3,-4.788752E-3,-2.0969536E-3,-2.1895966E-3,-1.0211206E-2,-4.6736E-3,-2.4653507E-2],"categories":[],"categories_nodes":[],"categories_segments":[],"categories_sizes":[],"default_left":[0,0,0,0,0,0,0,0,0,0,0,0,0,0,0,0,0,0,0,0,0,0,0,0,0,0,0,0,0,0,0],"id":23,"left_children":[1,3,5,7,9,11,13,15,17,19,21,23,25,27,29,-1,-1,-1,-1,-1,-1,-1,-1,-1,-1,-1,-1,-1,-1,-1,-1],"loss_changes":[6.5265946E0,2.6182923E0,6.2657356E-2,9.87843E-1,4.338336E-1,2.6255345E-1,1.8580937E-1,2.1824479E-1,3.2076246E-1,2.6119208E-1,2.619821E-1,1.1507034E-1,1.0230951E-3,2.0154148E-2,2.0271492E-1,0E0,0E0,0E0,0E0,0E0,0E0,0E0,0E0,0E0,0E0,0E0,0E0,0E0,0E0,0E0,0E0],"parents":[2147483647,0,0,1,1,2,2,3,3,4,4,5,5,6,6,7,7,8,8,9,9,10,10,11,11,12,12,13,13,14,14],"right_children":[2,4,6,8,10,12,14,16,18,20,22,24,26,28,30,-1,-1,-1,-1,-1,-1,-1,-1,-1,-1,-1,-1,-1,-1,-1,-1],"split_conditions":[-8.575625E0,3.9428893E-1,-6.695616E0,4.4912106E-1,-1.6952608E1,-6.7606125E0,-1.6302153E1,-1.268133E-2,3.6151126E-1,-1.0645168E1,-1.6941086E1,1.74197E-1,3.931017E-2,1.6961084E-1,2.2960255E-1,-6.12311E-3,3.115106E-3,-8.240128E-3,-9.4268056E-5,1.3248235E-2,5.6579923E-3,-7.583809E-3,6.0944348E-3,-1.7399566E-2,-5.990095E-3,-4.788752E-3,-2.0969536E-3,-2.1895966E-3,-1.0211206E-2,-4.6736E-3,-2.4653507E-2],"split_indices":[3,0,3,1,4,3,4,2,0,3,4,0,2,0,1,0,0,0,0,0,0,0,0,0,0,0,0,0,0,0,0],"split_type":[0,0,0,0,0,0,0,0,0,0,0,0,0,0,0,0,0,0,0,0,0,0,0,0,0,0,0,0,0,0,0],"sum_hessian":[3.09E2,2.6E2,4.9E1,1.47E2,1.13E2,3.1E1,1.8E1,8.9E1,5.8E1,7.2E1,4.1E1,2.5E1,6E0,4E0,1.4E1,6E0,8.3E1,4.1E1,1.7E1,5.5E1,1.7E1,3E0,3.8E1,2.1E1,4E0,2E0,4E0,2E0,2E0,2E0,1.2E1],"tree_param":{"num_deleted":"0","num_feature":"5","num_nodes":"31","size_leaf_vector":"1"}},{"base_weights":[-4.6258196E-3,6.1902378E-2,-3.7182054E-1,-2.7023086E-2,2.1371438E-1,-2.9513723E-1,-4.8322955E-1,2.5275188E-2,-1.0430401E-1,1.6186838E-1,3.109302E-1,-3.2703996E-1,1.9661188E-3,-5.293739E-3,-4.9919894E-1,-8.835669E-3,1.9946252E-3,-8.594697E-3,2.7577071E-3,1.436833E-2,3.0916866E-3,4.3262243E-3,1.6944954E-2,-1.7650833E-2,-4.146272E-3,2.6575269E-3,-1.6406098E-3,-2.781943E-2,-1.508099E-2],"categories":[],"categories_nodes":[],"categories_segments":[],"categories_sizes":[],"default_left":[0,0,0,0,0,0,0,0,0,0,0,0,0,0,0,0,0,0,0,0,0,0,0,0,0,0,0,0,0],"id":24,"left_children":[1,3,5,7,9,11,13,15,17,19,21,23,25,-1,27,-1,-1,-1,-1,-1,-1,-1,-1,-1,-1,-1,-1,-1,-1],"loss_changes":[7.6448035E0,3.583263E0,2.6745462E-1,6.816349E-1,4.4361448E-1,2.944734E-1,5.561781E-2,3.0525503E-1,7.423688E-1,8.108065E-1,1.7779732E-1,1.4828253E-1,8.864417E-3,0E0,2.4273872E-2,0E0,0E0,0E0,0E0,0E0,0E0,0E0,0E0,0E0,0E0,0E0,0E0,0E0,0E0],"parents":[2147483647,0,0,1,1,2,2,3,3,4,4,5,5,6,6,7,7,8,8,9,9,10,10,11,11,12,12,14,14],"right_children":[2,4,6,8,10,12,14,16,18,20,22,24,26,-1,28,-1,-1,-1,-1,-1,-1,-1,-1,-1,-1,-1,-1,-1,-1],"split_conditions":[-7.2818913E0,5.890421E-1,-6.695616E0,4.9399865E-1,4.9998814E-1,6.874199E-2,1.5919793E-1,-1.0965668E-2,3.6157387E-1,4.6624383E-1,-1.0901439E1,-6.7606125E0,1.6961084E-1,-5.293739E-3,2.6780558E-1,-8.835669E-3,1.9946252E-3,-8.594697E-3,2.7577071E-3,1.436833E-2,3.0916866E-3,4.3262243E-3,1.6944954E-2,-1.7650833E-2,-4.146272E-3,2.6575269E-3,-1.6406098E-3,-2.781943E-2,-1.508099E-2],"split_indices":[3,1,3,1,0,2,0,2,0,0,3,3,0,0,1,0,0,0,0,0,0,0,0,0,0,0,0,0,0],"split_type":[0,0,0,0,0,0,0,0,0,0,0,0,0,0,0,0,0,0,0,0,0,0,0,0,0,0,0,0,0],"sum_hessian":[3.11E2,2.64E2,4.7E1,1.67E2,9.7E1,3E1,1.7E1,1E2,6.7E1,6.5E1,3.2E1,2.7E1,3E0,1E0,1.6E1,6E0,9.4E1,4.7E1,2E1,2.8E1,3.7E1,4E0,2.8E1,2.4E1,3E0,1E0,2E0,1.1E1,5E0],"tree_param":{"num_deleted":"0","num_feature":"5","num_nodes":"29","size_leaf_vector":"1"}},{"base_weights":[-1.708435E-4,-2.9833865E-1,5.7169773E-2,-5.4701877E-1,-2.3794673E-1,-2.768613E-2,1.5951914E-1,-4.802418E-3,-2.9569203E-2,-1.7836163E-2,-1.724013E-1,3.1061934E-2,-1.1431798E-1,2.8436056E-1,1.21146984E-1,-1.2436856E-2,-3.6422987E-3,-5.4753283E-3,2.5499333E-3,-6.849512E-3,7.670293E-3,1.5014129E-2,-3.2402873E-3,-9.566089E-3,7.2585903E-3],"categories":[],"categories_nodes":[],"categories_segments":[],"categories_sizes":[],"default_left":[0,0,0,0,0,0,0,0,0,0,0,0,0,0,0,0,0,0,0,0,0,0,0,0,0],"id":25,"left_children":[1,3,5,7,9,11,13,-1,-1,-1,15,17,19,21,23,-1,-1,-1,-1,-1,-1,-1,-1,-1,-1],"loss_changes":[5.300068E0,6.2075186E-1,2.262503E0,1.2326527E-1,2.6548147E-1,7.3134285E-1,5.308218E-1,0E0,0E0,0E0,2.0226991E-1,2.4659762E-1,3.730693E-1,1.6956449E-1,7.184191E-1,0E0,0E0,0E0,0E0,0E0,0E0,0E0,0E0,0E0,0E0],"parents":[2147483647,0,0,1,1,2,2,3,3,4,4,5,5,6,6,10,10,11,11,12,12,13,13,14,14],"right_children":[2,4,6,8,10,12,14,-1,-1,-1,16,18,20,22,24,-1,-1,-1,-1,-1,-1,-1,-1,-1,-1],"split_conditions":[2.1838908E-1,2.4533E-1,3.9428893E-1,-6.7212796E0,-6.96294E0,4.5161107E-1,4.6624383E-1,-4.802418E-3,-2.9569203E-2,-1.7836163E-2,2.826091E-1,-1.0965668E-2,1.7003667E-1,6.606615E-1,-1.740168E1,-1.2436856E-2,-3.6422987E-3,-5.4753283E-3,2.5499333E-3,-6.849512E-3,7.670293E-3,1.5014129E-2,-3.2402873E-3,-9.566089E-3,7.2585903E-3],"split_indices":[0,1,0,3,3,1,0,0,0,0,1,2,2,1,4,0,0,0,0,0,0,0,0,0,0],"split_type":[0,0,0,0,0,0,0,0,0,0,0,0,0,0,0,0,0,0,0,0,0,0,0,0,0],"sum_hessian":[3.08E2,4.9E1,2.59E2,8E0,4.1E1,1.42E2,1.17E2,1E0,7E0,1.3E1,2.8E1,8.5E1,5.7E1,2.6E1,9.1E1,1.5E1,1.3E1,1E1,7.5E1,5.3E1,4E0,2.5E1,1E0,6E0,8.5E1],"tree_param":{"num_deleted":"0","num_feature":"5","num_nodes":"25","size_leaf_vector":"1"}},{"base_weights":[1.0211649E-2,6.1211273E-2,-2.8442737E-1,6.2984036E-4,2.2363062E-1,-2.089389E-1,-3.9203027E-1,1.0748538E-1,-2.311995E-2,1.7158784E-1,3.2025588E-1,-3.0551913E-1,-1.1740877E-1,-2.1123085E-2,2.371806E-3,-2.2886682E-3,8.224473E-3,-4.5760022E-3,2.0219565E-3,1.3877536E-2,3.3619222E-3,2.270621E-3,1.796059E-2,-6.7835483E-3,-1.7145326E-2,-8.7651017E-4,-1.0754803E-2],"categories":[],"categories_nodes":[],"categories_segments":[],"categories_sizes":[],"default_left":[0,0,0,0,0,0,0,0,0,0,0,0,0,0,0,0,0,0,0,0,0,0,0,0,0,0,0],"id":26,"left_children":[1,3,5,7,9,11,13,15,17,19,21,23,25,-1,-1,-1,-1,-1,-1,-1,-1,-1,-1,-1,-1,-1,-1],"loss_changes":[4.480274E0,2.4991167E0,2.7549195E-1,4.7451526E-1,2.9202485E-1,2.1164942E-1,2.4739075E-1,3.0456585E-1,6.688603E-1,5.010247E-1,2.2994304E-1,3.6029816E-2,1.5233919E-1,0E0,0E0,0E0,0E0,0E0,0E0,0E0,0E0,0E0,0E0,0E0,0E0,0E0,0E0],"parents":[2147483647,0,0,1,1,2,2,3,3,4,4,5,5,6,6,7,7,8,8,9,9,10,10,11,11,12,12],"right_children":[2,4,6,8,10,12,14,16,18,20,22,24,26,-1,-1,-1,-1,-1,-1,-1,-1,-1,-1,-1,-1,-1,-1],"split_conditions":[-7.2818913E0,6.124394E-1,-6.695616E0,-2.1162832E1,5.21076E-1,-6.96294E0,2.826091E-1,2.3780361E-1,3.576182E-1,4.5274496E-1,-1.0901439E1,2.7394494E-1,-1.6249123E1,-2.1123085E-2,2.371806E-3,-2.2886682E-3,8.224473E-3,-4.5760022E-3,2.0219565E-3,1.3877536E-2,3.3619222E-3,2.270621E-3,1.796059E-2,-6.7835483E-3,-1.7145326E-2,-8.7651017E-4,-1.0754803E-2],"split_indices":[3,1,3,4,0,3,1,0,0,0,3,1,4,0,0,0,0,0,0,0,0,0,0,0,0,0,0],"split_type":[0,0,0,0,0,0,0,0,0,0,0,0,0,0,0,0,0,0,0,0,0,0,0,0,0,0,0],"sum_hessian":[2.96E2,2.53E2,4.3E1,1.85E2,6.8E1,2.7E1,1.6E1,3.3E1,1.52E2,4.6E1,2.2E1,1.2E1,1.5E1,1.5E1,1E0,9E0,2.4E1,7.3E1,7.9E1,2.2E1,2.4E1,3E0,1.9E1,3E0,9E0,8E0,7E0],"tree_param":{"num_deleted":"0","num_feature":"5","num_nodes":"27","size_leaf_vector":"1"}},{"base_weights":[3.9879E-3,6.0466938E-2,-2.9091245E-1,-1.1669458E-2,1.931052E-1,-3.4828117E-1,-1.8744528E-1,4.028335E-2,-6.409618E-2,2.0442256E-1,-1.0698235E-1,-3.5533142E-1,-3.4193397E-3,3.167715E-2,-2.4420571E-1,-3.9162994E-3,3.42565E-3,-6.6218213E-3,9.953029E-4,1.2476775E-2,4.861441E-3,-9.061838E-3,2.8945208E-3,-1.0298461E-2,-1.8848255E-2,-3.0561388E-3,1.0071921E-2,-1.4158181E-2,9.4998674E-4],"categories":[],"categories_nodes":[],"categories_segments":[],"categories_sizes":[],"default_left":[0,0,0,0,0,0,0,0,0,0,0,0,0,0,0,0,0,0,0,0,0,0,0,0,0,0,0,0,0],"id":27,"left_children":[1,3,5,7,9,11,13,15,17,19,21,23,-1,25,27,-1,-1,-1,-1,-1,-1,-1,-1,-1,-1,-1,-1,-1,-1],"loss_changes":[5.180854E0,2.4995136E0,2.315054E-1,4.656136E-1,3.3431983E-1,3.6873102E-2,2.564854E-1,2.9332012E-1,4.9059865E-1,4.0612626E-1,5.9461985E-2,1.92945E-2,0E0,9.108165E-2,1.6944301E-1,0E0,0E0,0E0,0E0,0E0,0E0,0E0,0E0,0E0,0E0,0E0,0E0,0E0,0E0],"parents":[2147483647,0,0,1,1,2,2,3,3,4,4,5,5,6,6,7,7,8,8,9,9,10,10,11,11,13,13,14,14],"right_children":[2,4,6,8,10,12,14,16,18,20,22,24,-1,26,28,-1,-1,-1,-1,-1,-1,-1,-1,-1,-1,-1,-1,-1,-1],"split_conditions":[-7.2818913E0,5.957847E-1,3.8906325E-2,4.4912106E-1,1.4078744E-1,1.8403444E-1,4.491847E-2,2.3845659E-1,3.6157387E-1,-1.0619474E1,4.748826E-1,1.6074103E-1,-3.4193397E-3,2.5410348E-1,7.1996436E-2,-3.9162994E-3,3.42565E-3,-6.6218213E-3,9.953029E-4,1.2476775E-2,4.861441E-3,-9.061838E-3,2.8945208E-3,-1.0298461E-2,-1.8848255E-2,-3.0561388E-3,1.0071921E-2,-1.4158181E-2,9.4998674E-4],"split_indices":[3,1,2,1,2,0,2,0,0,3,0,0,0,1,2,0,0,0,0,0,0,0,0,0,0,0,0,0,0],"split_type":[0,0,0,0,0,0,0,0,0,0,0,0,0,0,0,0,0,0,0,0,0,0,0,0,0,0,0,0,0],"sum_hessian":[3.09E2,2.6E2,4.9E1,1.69E2,9.1E1,3E1,1.9E1,8.5E1,8.4E1,8.8E1,3E0,2.9E1,1E0,4E0,1.5E1,1.6E1,6.9E1,4.6E1,3.8E1,6.1E1,2.7E1,2E0,1E0,5E0,2.4E1,3E0,1E0,1.3E1,2E0],"tree_param":{"num_deleted":"0","num_feature":"5","num_nodes":"29","size_leaf_vector":"1"}},{"base_weights":[-4.465572E-4,-6.959065E-2,1.6581506E-1,-2.5875366E-1,-2.1895304E-2,1.17425084E-1,2.7258366E-1,-3.1285724E-1,-1.8089168E-1,7.062373E-2,-5.5233736E-2,2.2867863E-1,6.0361143E-2,3.339675E-1,8.505106E-2,-1.5635312E-3,-1.6187027E-2,2.5632263E-3,-1.2106738E-2,-3.2004311E-3,6.0011824E-3,-4.5542917E-3,1.1094925E-3,1.5447426E-2,1.2001685E-3,-4.692449E-3,4.914528E-3,3.0603886E-3,1.8925058E-2,9.162987E-3,-6.9858315E-3],"categories":[],"categories_nodes":[],"categories_segments":[],"categories_sizes":[],"default_left":[0,0,0,0,0,0,0,0,0,0,0,0,0,0,0,0,0,0,0,0,0,0,0,0,0,0,0,0,0,0,0],"id":28,"left_children":[1,3,5,7,9,11,13,15,17,19,21,23,25,27,29,-1,-1,-1,-1,-1,-1,-1,-1,-1,-1,-1,-1,-1,-1,-1,-1],"loss_changes":[3.4833333E0,1.9250842E0,4.2781305E-1,1.2454915E-1,5.344244E-1,3.8615644E-1,2.8240538E-1,6.342673E-2,2.9677218E-1,3.1362057E-1,3.545476E-1,3.3759856E-1,2.607358E-1,2.1977234E-1,2.0219752E-1,0E0,0E0,0E0,0E0,0E0,0E0,0E0,0E0,0E0,0E0,0E0,0E0,0E0,0E0,0E0,0E0],"parents":[2147483647,0,0,1,1,2,2,3,3,4,4,5,5,6,6,7,7,8,8,9,9,10,10,11,11,12,12,13,13,14,14],"right_children":[2,4,6,8,10,12,14,16,18,20,22,24,26,28,30,-1,-1,-1,-1,-1,-1,-1,-1,-1,-1,-1,-1,-1,-1,-1,-1],"split_conditions":[5.963788E-1,1.74197E-1,5.0876606E-1,3.6669746E-2,-2.07049E1,4.5274496E-1,-1.055768E1,-1.6584406E1,4.2272188E-2,2.3780361E-1,3.7525135E-1,6.402911E-1,-1.740168E1,-1.0958897E1,5.268728E-1,-1.5635312E-3,-1.6187027E-2,2.5632263E-3,-1.2106738E-2,-3.2004311E-3,6.0011824E-3,-4.5542917E-3,1.1094925E-3,1.5447426E-2,1.2001685E-3,-4.692449E-3,4.914528E-3,3.0603886E-3,1.8925058E-2,9.162987E-3,-6.9858315E-3],"split_indices":[1,0,0,2,4,0,3,4,2,0,0,1,4,3,0,0,0,0,0,0,0,0,0,0,0,0,0,0,0,0,0],"split_type":[0,0,0,0,0,0,0,0,0,0,0,0,0,0,0,0,0,0,0,0,0,0,0,0,0,0,0,0,0,0,0],"sum_hessian":[3.01E2,2.13E2,8.8E1,4.2E1,1.71E2,6.2E1,2.6E1,2.3E1,1.9E1,4.5E1,1.26E2,2E1,4.2E1,1.9E1,7E0,1E0,2.2E1,4E0,1.5E1,1.2E1,3.3E1,8.6E1,4E1,1.4E1,6E0,8E0,3.4E1,3E0,1.6E1,5E0,2E0],"tree_param":{"num_deleted":"0","num_feature":"5","num_nodes":"31","size_leaf_vector":"1"}},{"base_weights":[-1.3404937E-3,4.8116982E-2,-2.7745014E-1,-3.0466648E-2,1.396211E-1,-3.5353315E-1,-2.2836074E-1,2.1843571E-2,-9.889969E-2,9.161235E-2,2.345751E-1,-3.2319487E-3,-3.675491E-1,-3.4926072E-1,-1.4840071E-1,-3.9406708E-3,2.1704475E-3,-5.929313E-3,1.1056185E-2,5.2821194E-3,-7.559538E-3,1.4502983E-2,3.8157862E-3,-9.575252E-3,-2.0513585E-2,-4.629183E-3,-1.8208915E-2,5.184265E-3,-9.019661E-3],"categories":[],"categories_nodes":[],"categories_segments":[],"categories_sizes":[],"default_left":[0,0,0,0,0,0,0,0,0,0,0,0,0,0,0,0,0,0,0,0,0,0,0,0,0,0,0,0,0],"id":29,"left_children":[1,3,5,7,9,11,13,15,17,19,21,-1,23,25,27,-1,-1,-1,-1,-1,-1,-1,-1,-1,-1,-1,-1,-1,-1],"loss_changes":[4.3148913E0,1.9313681E0,9.8540545E-2,5.2122366E-1,5.437794E-1,4.5077085E-2,2.5751877E-1,1.8358979E-1,4.2313242E-1,3.0212122E-1,3.3788276E-1,0E0,4.1767836E-2,1.22311115E-2,1.8806618E-1,0E0,0E0,0E0,0E0,0E0,0E0,0E0,0E0,0E0,0E0,0E0,0E0,0E0,0E0],"parents":[2147483647,0,0,1,1,2,2,3,3,4,4,5,5,6,6,7,7,8,8,9,9,10,10,12,12,13,13,14,14],"right_children":[2,4,6,8,10,12,14,16,18,20,22,-1,24,26,28,-1,-1,-1,-1,-1,-1,-1,-1,-1,-1,-1,-1,-1,-1],"split_conditions":[-7.2818913E0,3.8543162E-1,2.6780558E-1,3.4633884E-1,4.9998814E-1,1.5919793E-1,-6.96294E0,-1.3934573E1,-8.594109E0,4.9872804E-1,-1.055768E1,-3.2319487E-3,-6.7212796E0,2.7394494E-1,-6.9313684E0,-3.9406708E-3,2.1704475E-3,-5.929313E-3,1.1056185E-2,5.2821194E-3,-7.559538E-3,1.4502983E-2,3.8157862E-3,-9.575252E-3,-2.0513585E-2,-4.629183E-3,-1.8208915E-2,5.184265E-3,-9.019661E-3],"split_indices":[3,0,1,0,0,0,3,3,3,0,3,0,3,1,3,0,0,0,0,0,0,0,0,0,0,0,0,0,0],"split_type":[0,0,0,0,0,0,0,0,0,0,0,0,0,0,0,0,0,0,0,0,0,0,0,0,0,0,0,0,0],"sum_hessian":[3.14E2,2.67E2,4.7E1,1.44E2,1.23E2,1.6E1,3.1E1,8.2E1,6.2E1,8.3E1,4E1,1E0,1.5E1,1.1E1,2E1,1.4E1,6.8E1,5.9E1,3E0,7.9E1,4E0,2.9E1,1.1E1,4E0,1.1E1,1E0,1E1,2E0,1.8E1],"tree_param":{"num_deleted":"0","num_feature":"5","num_nodes":"29","size_leaf_vector":"1"}},{"base_weights":[-1.5341456E-2,3.608051E-2,-2.836819E-1,-1.5510024E-2,1.3140872E-1,-3.0835038E-1,-1.3978311E-1,3.441307E-2,-7.023155E-2,2.8164196E-1,1.0468512E-1,-2.174594E-1,-3.5242364E-1,-1.9687945E-2,-5.8816284E-2,3.8651982E-4,5.9587695E-3,-5.874922E-3,3.242565E-5,1.7134314E-2,2.9310347E-3,1.1112257E-2,3.0157685E-3,-1.6883317E-2,-7.4625784E-3,-3.1511486E-3,-1.8073937E-2,-4.2532342E-3,3.123063E-3],"categories":[],"categories_nodes":[],"categories_segments":[],"categories_sizes":[],"default_left":[0,0,0,0,0,0,0,0,0,0,0,0,0,0,0,0,0,0,0,0,0,0,0,0,0,0,0,0,0],"id":30,"left_children":[1,3,5,7,9,11,13,15,17,19,21,23,25,-1,27,-1,-1,-1,-1,-1,-1,-1,-1,-1,-1,-1,-1,-1,-1],"loss_changes":[4.205008E0,1.2610546E0,1.3083553E-1,4.5863882E-1,3.3184588E-1,8.7602615E-2,1.619131E-1,1.9810703E-1,2.680986E-1,1.5689588E-1,3.9345163E-1,8.078766E-2,4.5353174E-2,0E0,3.0779976E-2,0E0,0E0,0E0,0E0,0E0,0E0,0E0,0E0,0E0,0E0,0E0,0E0,0E0,0E0],"parents":[2147483647,0,0,1,1,2,2,3,3,4,4,5,5,6,6,7,7,8,8,9,9,10,10,11,11,12,12,14,14],"right_children":[2,4,6,8,10,12,14,16,18,20,22,24,26,-1,28,-1,-1,-1,-1,-1,-1,-1,-1,-1,-1,-1,-1,-1,-1],"split_conditions":[-7.2818913E0,5.9436834E-1,1.7384873E-1,4.4912106E-1,-3.0579576E-1,-1.6302153E1,2.4533E-1,3.529813E-1,3.6157387E-1,-1.0684594E1,4.5274496E-1,-6.96294E0,2.2741586E-1,-1.9687945E-2,-1.6149336E1,3.8651982E-4,5.9587695E-3,-5.874922E-3,3.242565E-5,1.7134314E-2,2.9310347E-3,1.1112257E-2,3.0157685E-3,-1.6883317E-2,-7.4625784E-3,-3.1511486E-3,-1.8073937E-2,-4.2532342E-3,3.123063E-3],"split_indices":[3,1,0,1,2,4,1,0,0,3,0,3,1,0,4,0,0,0,0,0,0,0,0,0,0,0,0,0,0],"split_type":[0,0,0,0,0,0,0,0,0,0,0,0,0,0,0,0,0,0,0,0,0,0,0,0,0,0,0,0,0],"sum_hessian":[3.03E2,2.55E2,4.8E1,1.66E2,8.9E1,4E1,8E0,8.7E1,7.9E1,1.2E1,7.7E1,1.5E1,2.5E1,1E0,7E0,6.7E1,2E1,4.7E1,3.2E1,9E0,3E0,2E1,5.7E1,4E0,1.1E1,1E0,2.4E1,6E0,1E0],"tree_param":{"num_deleted":"0","num_feature":"5","num_nodes":"29","size_leaf_vector":"1"}},{"base_weights":[-1.2376618E-2,-2.2137365E-1,4.144161E-2,-4.1954967E-1,-1.8424481E-1,-2.241241E-3,1.5975581E-1,-5.221514E-3,-2.4733258E-2,-2.1988271E-1,-8.5862115E-2,7.479292E-3,-2.8052297E-1,1.0819562E-1,2.7889124E-1,-8.66813E-3,-1.7784363E-2,-2.1388445E-3,-1.291529E-2,6.5482566E-3,-8.7206624E-4,-1.5248832E-2,-3.956366E-3,1.0780125E-2,2.526741E-4,1.6930966E-2,4.652194E-3],"categories":[],"categories_nodes":[],"categories_segments":[],"categories_sizes":[],"default_left":[0,0,0,0,0,0,0,0,0,0,0,0,0,0,0,0,0,0,0,0,0,0,0,0,0,0,0],"id":31,"left_children":[1,3,5,7,9,11,13,-1,-1,15,17,19,21,23,25,-1,-1,-1,-1,-1,-1,-1,-1,-1,-1,-1,-1],"loss_changes":[3.406025E0,3.7889886E-1,1.2459186E0,1.6137516E-1,1.704526E-1,4.8089144E-1,3.690971E-1,0E0,0E0,1.8472517E-1,1.0782687E-1,5.315873E-1,5.417168E-3,5.195846E-1,1.7939925E-1,0E0,0E0,0E0,0E0,0E0,0E0,0E0,0E0,0E0,0E0,0E0,0E0],"parents":[2147483647,0,0,1,1,2,2,3,3,4,4,5,5,6,6,9,9,10,10,11,11,12,12,13,13,14,14],"right_children":[2,4,6,8,10,12,14,-1,-1,16,18,20,22,24,26,-1,-1,-1,-1,-1,-1,-1,-1,-1,-1,-1,-1],"split_conditions":[2.3627976E-1,2.4533E-1,6.124394E-1,-6.7212796E0,1.74197E-1,1.7075452E-1,5.21076E-1,-5.221514E-3,-2.4733258E-2,-1.6124905E1,2.3402897E-1,-1.3368951E1,5.14146E-1,4.6624383E-1,-1.7032598E1,-8.66813E-3,-1.7784363E-2,-2.1388445E-3,-1.291529E-2,6.5482566E-3,-8.7206624E-4,-1.5248832E-2,-3.956366E-3,1.0780125E-2,2.526741E-4,1.6930966E-2,4.652194E-3],"split_indices":[0,1,1,3,0,2,0,0,0,4,0,3,1,0,4,0,0,0,0,0,0,0,0,0,0,0,0],"split_type":[0,0,0,0,0,0,0,0,0,0,0,0,0,0,0,0,0,0,0,0,0,0,0,0,0,0,0],"sum_hessian":[3.01E2,6.1E1,2.4E2,8E0,5.3E1,1.76E2,6.4E1,2E0,6E0,3.8E1,1.5E1,1.71E2,5E0,4.6E1,1.8E1,3E1,8E0,1.3E1,2E0,2.8E1,1.43E2,4E0,1E0,2.2E1,2.4E1,1.3E1,5E0],"tree_param":{"num_deleted":"0","num_feature":"5","num_nodes":"27","size_leaf_vector":"1"}},{"base_weights":[2.1295478E-3,-6.9066E-2,1.3845564E-1,-2.3352042E-2,-2.0848367E-1,2.5708157E-1,9.866886E-2,4.199371E-2,-5.333874E-2,-2.5113657E-1,-1.3762315E-1,2.7460885E-1,-4.527509E-3,5.995761E-3,2.03378E-1,-5.4075983E-3,4.6806317E-3,-1.3382383E-2,-1.4113449E-3,-1.4799259E-2,-8.936962E-3,-2.58719E-3,-1.3535457E-2,6.940413E-3,1.5985433E-2,-5.0303168E-3,2.4557747E-3,1.3118823E-2,5.972338E-4],"categories":[],"categories_nodes":[],"categories_segments":[],"categories_sizes":[],"default_left":[0,0,0,0,0,0,0,0,0,0,0,0,0,0,0,0,0,0,0,0,0,0,0,0,0,0,0,0,0],"id":32,"left_children":[1,3,5,7,9,11,13,15,17,19,21,23,-1,25,27,-1,-1,-1,-1,-1,-1,-1,-1,-1,-1,-1,-1,-1,-1],"loss_changes":[2.9989524E0,1.288918E0,4.749272E-1,3.040034E-1,1.1655831E-1,1.8328488E-1,7.84782E-1,3.8989195E-1,5.629045E-1,4.450333E-2,2.2600856E-1,1.0873616E-1,0E0,2.071941E-1,4.2604816E-1,0E0,0E0,0E0,0E0,0E0,0E0,0E0,0E0,0E0,0E0,0E0,0E0,0E0,0E0],"parents":[2147483647,0,0,1,1,2,2,3,3,4,4,5,5,6,6,7,7,8,8,9,9,10,10,11,11,13,13,14,14],"right_children":[2,4,6,8,10,12,14,16,18,20,22,24,-1,26,28,-1,-1,-1,-1,-1,-1,-1,-1,-1,-1,-1,-1,-1,-1],"split_conditions":[5.8629835E-1,-7.2818913E0,4.559296E-1,-2.07049E1,3.675802E-2,6.737062E-1,4.9998814E-1,-1.3934573E1,-1.0878732E1,-1.6196257E1,-1.6230434E1,-1.7703178E1,-4.527509E-3,-1.7164253E1,-1.0536357E1,-5.4075983E-3,4.6806317E-3,-1.3382383E-2,-1.4113449E-3,-1.4799259E-2,-8.936962E-3,-2.58719E-3,-1.3535457E-2,6.940413E-3,1.5985433E-2,-5.0303168E-3,2.4557747E-3,1.3118823E-2,5.972338E-4],"split_indices":[1,3,0,4,2,1,0,3,3,4,4,4,0,4,3,0,0,0,0,0,0,0,0,0,0,0,0,0,0],"split_type":[0,0,0,0,0,0,0,0,0,0,0,0,0,0,0,0,0,0,0,0,0,0,0,0,0,0,0,0,0],"sum_hessian":[3.07E2,2.02E2,1.05E2,1.53E2,4.9E1,2.5E1,8E1,4.8E1,1.05E2,2.9E1,2E1,2.4E1,1E0,4.3E1,3.7E1,1.2E1,3.6E1,1E1,9.5E1,1.6E1,1.3E1,1.3E1,7E0,7E0,1.7E1,1.2E1,3.1E1,2.8E1,9E0],"tree_param":{"num_deleted":"0","num_feature":"5","num_nodes":"29","size_leaf_vector":"1"}},{"base_weights":[-8.129624E-3,-9.544423E-2,1.0252909E-1,-1.6193913E-2,-1.8538904E-1,7.742725E-2,2.4299332E-1,1.3413906E-2,-1.3866016E-1,-2.4227832E-1,-3.386872E-2,1.7983101E-1,5.0167926E-2,3.6470085E-1,1.1025984E-1,1.4060327E-4,1.3346036E-2,-9.099447E-3,2.9243887E-3,-1.6394747E-2,-1.0092772E-2,-6.5507554E-3,8.232883E-3,5.667268E-3,1.6255198E-2,3.488258E-3,-1.0172367E-3,2.1229513E-2,8.435959E-3,1.6037798E-2,1.3921685E-3],"categories":[],"categories_nodes":[],"categories_segments":[],"categories_sizes":[],"default_left":[0,0,0,0,0,0,0,0,0,0,0,0,0,0,0,0,0,0,0,0,0,0,0,0,0,0,0,0,0,0,0],"id":33,"left_children":[1,3,5,7,9,11,13,15,17,19,21,23,25,27,29,-1,-1,-1,-1,-1,-1,-1,-1,-1,-1,-1,-1,-1,-1,-1,-1],"loss_changes":[2.9567335E0,1.2159122E0,4.571836E-1,3.3544818E-1,6.813848E-1,3.1478733E-1,2.828815E-1,2.0082232E-1,1.6440329E-1,1.3454342E-1,4.6515343E-1,1.949566E-1,1.299317E-1,4.5735717E-2,1.8190089E-1,0E0,0E0,0E0,0E0,0E0,0E0,0E0,0E0,0E0,0E0,0E0,0E0,0E0,0E0,0E0,0E0],"parents":[2147483647,0,0,1,1,2,2,3,3,4,4,5,5,6,6,7,7,8,8,9,9,10,10,11,11,12,12,13,13,14,14],"right_children":[2,4,6,8,10,12,14,16,18,20,22,24,26,28,30,-1,-1,-1,-1,-1,-1,-1,-1,-1,-1,-1,-1,-1,-1,-1,-1],"split_conditions":[3.7525135E-1,-1.054037E1,5.172564E-1,1.5182368E-1,-1.58468485E1,-1.1050775E1,-1.7069752E1,1.4880988E-1,1.8233374E-1,-7.091678E0,3.5174108E-1,-1.112362E1,8.49169E-2,-1.0574519E1,-3.2718524E-1,1.4060327E-4,1.3346036E-2,-9.099447E-3,2.9243887E-3,-1.6394747E-2,-1.0092772E-2,-6.5507554E-3,8.232883E-3,5.667268E-3,1.6255198E-2,3.488258E-3,-1.0172367E-3,2.1229513E-2,8.435959E-3,1.6037798E-2,1.3921685E-3],"split_indices":[0,3,0,2,4,3,4,2,2,3,0,3,2,3,2,0,0,0,0,0,0,0,0,0,0,0,0,0,0,0,0],"split_type":[0,0,0,0,0,0,0,0,0,0,0,0,0,0,0,0,0,0,0,0,0,0,0,0,0,0,0,0,0,0,0],"sum_hessian":[3.04E2,1.7E2,1.34E2,9.1E1,7.9E1,1.15E2,1.9E1,7.4E1,1.7E1,5.7E1,2.2E1,2.3E1,9.2E1,9E0,1E1,7.2E1,2E0,1.4E1,3E0,1.6E1,4.1E1,1.5E1,7E0,1.7E1,6E0,7.2E1,2E1,6E0,3E0,2E0,8E0],"tree_param":{"num_deleted":"0","num_feature":"5","num_nodes":"31","size_leaf_vector":"1"}},{"base_weights":[-7.188815E-3,3.7685335E-2,-2.2365463E-1,-1.1617208E-3,1.5612493E-1,-2.3572889E-1,-1.983136E-2,7.130985E-2,-2.3490893E-2,2.5218856E-1,1.22852445E-1,-1.8565252E-1,-1.6842922E-2,4.9574496E-3,-9.2541136E-2,-6.389427E-5,7.716406E-3,-4.4332696E-3,9.6231577E-4,1.5152154E-2,4.4935467E-3,1.0241851E-2,2.5750054E-3,-1.2843646E-2,-7.3444727E-3,-9.7594265E-4,-5.964643E-3],"categories":[],"categories_nodes":[],"categories_segments":[],"categories_sizes":[],"default_left":[0,0,0,0,0,0,0,0,0,0,0,0,0,0,0,0,0,0,0,0,0,0,0,0,0,0,0],"id":34,"left_children":[1,3,5,7,9,11,13,15,17,19,21,23,-1,-1,25,-1,-1,-1,-1,-1,-1,-1,-1,-1,-1,-1,-1],"loss_changes":[2.9419718E0,1.1550398E0,1.2329769E-1,3.091389E-1,1.671871E-1,1.856072E-1,4.37795E-2,2.7137208E-1,4.0837136E-1,9.658396E-2,2.7024078E-1,5.8893323E-2,0E0,0E0,3.5319552E-3,0E0,0E0,0E0,0E0,0E0,0E0,0E0,0E0,0E0,0E0,0E0,0E0],"parents":[2147483647,0,0,1,1,2,2,3,3,4,4,5,5,6,6,7,7,8,8,9,9,10,10,11,11,14,14],"right_children":[2,4,6,8,10,12,14,16,18,20,22,24,-1,-1,26,-1,-1,-1,-1,-1,-1,-1,-1,-1,-1,-1,-1],"split_conditions":[-8.710416E0,6.148533E-1,-1.5566594E1,-1.332333E1,-3.0579576E-1,-1.6124905E1,3.484923E-1,-2.1592684E1,-1.8280954E1,-1.0687321E1,4.6624383E-1,-6.96294E0,-1.6842922E-2,4.9574496E-3,3.5069716E-1,-6.389427E-5,7.716406E-3,-4.4332696E-3,9.6231577E-4,1.5152154E-2,4.4935467E-3,1.0241851E-2,2.5750054E-3,-1.2843646E-2,-7.3444727E-3,-9.7594265E-4,-5.964643E-3],"split_indices":[3,1,4,3,2,4,0,4,4,3,0,3,0,0,0,0,0,0,0,0,0,0,0,0,0,0,0],"split_type":[0,0,0,0,0,0,0,0,0,0,0,0,0,0,0,0,0,0,0,0,0,0,0,0,0,0,0],"sum_hessian":[3.01E2,2.5E2,5.1E1,1.89E2,6.1E1,4.8E1,3E0,4.4E1,1.45E2,1.4E1,4.7E1,3.4E1,1.4E1,1E0,2E0,2.4E1,2E1,5.7E1,8.8E1,1E1,4E0,2.1E1,2.6E1,1E1,2.4E1,1E0,1E0],"tree_param":{"num_deleted":"0","num_feature":"5","num_nodes":"27","size_leaf_vector":"1"}},{"base_weights":[5.995337E-3,-2.1281156E-1,4.3269258E-2,-1.6233814E-1,-1.5146795E-2,-3.916294E-3,1.3301669E-1,-1.3175185E-2,-1.1569343E-1,8.2574956E-2,-3.1199874E-2,1.416351E-1,-8.984232E-2,1.07956E-2,-7.029029E-3,5.181052E-4,7.7147186E-3,-2.5981541E-3,1.7978922E-3,8.675448E-3,4.0216856E-3,-5.5390596E-4,-5.6202174E-3],"categories":[],"categories_nodes":[],"categories_segments":[],"categories_sizes":[],"default_left":[0,0,0,0,0,0,0,0,0,0,0,0,0,0,0,0,0,0,0,0,0,0,0],"id":35,"left_children":[1,3,5,7,-1,9,11,-1,13,15,17,19,21,-1,-1,-1,-1,-1,-1,-1,-1,-1,-1],"loss_changes":[2.521192E0,1.5552163E-1,1.1185036E0,1.15798414E-1,0E0,4.1317996E-1,1.8750739E-1,0E0,2.2016546E-1,2.1592188E-1,1.8732494E-1,1.5770769E-1,5.863089E-3,0E0,0E0,0E0,0E0,0E0,0E0,0E0,0E0,0E0,0E0],"parents":[2147483647,0,0,1,1,2,2,3,3,5,5,6,6,8,8,9,9,10,10,11,11,12,12],"right_children":[2,4,6,8,-1,10,12,-1,14,16,18,20,22,-1,-1,-1,-1,-1,-1,-1,-1,-1,-1],"split_conditions":[1.74197E-1,-1.6153873E1,5.957847E-1,-6.96294E0,-1.5146795E-2,-2.1018686E1,-1.0398391E1,-1.3175185E-2,-6.9313684E0,-2.161681E1,-8.897368E0,8.212086E-2,4.8818424E-1,1.07956E-2,-7.029029E-3,5.181052E-4,7.7147186E-3,-2.5981541E-3,1.7978922E-3,8.675448E-3,4.0216856E-3,-5.5390596E-4,-5.6202174E-3],"split_indices":[0,4,1,3,0,4,3,0,3,4,3,2,0,0,0,0,0,0,0,0,0,0,0],"split_type":[0,0,0,0,0,0,0,0,0,0,0,0,0,0,0,0,0,0,0,0,0,0,0],"sum_hessian":[3.07E2,4.4E1,2.63E2,3E1,1.4E1,1.73E2,9E1,8E0,2.2E1,4.1E1,1.32E2,8.7E1,3E0,1E0,2.1E1,2.1E1,2E1,1.01E2,3.1E1,5.6E1,3.1E1,1E0,2E0],"tree_param":{"num_deleted":"0","num_feature":"5","num_nodes":"23","size_leaf_vector":"1"}},{"base_weights":[-4.2897593E-3,3.596495E-2,-2.0238431E-1,-2.623003E-2,1.0892375E-1,-1.4108874E-1,-3.1032658E-1,2.4134045E-2,-1.0130775E-1,2.4902861E-1,9.2193075E-2,-2.4867795E-1,-7.414315E-2,-1.552895E-1,-3.4353074E-1,-5.9595252E-3,2.2556453E-3,-5.828361E-3,1.0356593E-2,1.5368277E-2,2.775669E-3,8.987304E-3,2.6220256E-3,-3.5818727E-3,-1.4731318E-2,4.058555E-3,-5.074942E-3,2.7774156E-3,-1.1094302E-2,-1.4723957E-3,-1.8271288E-2],"categories":[],"categories_nodes":[],"categories_segments":[],"categories_sizes":[],"default_left":[0,0,0,0,0,0,0,0,0,0,0,0,0,0,0,0,0,0,0,0,0,0,0,0,0,0,0,0,0,0,0],"id":36,"left_children":[1,3,5,7,9,11,13,15,17,19,21,23,25,27,29,-1,-1,-1,-1,-1,-1,-1,-1,-1,-1,-1,-1,-1,-1,-1,-1],"loss_changes":[2.4553702E0,1.1645007E0,3.0026817E-1,5.2803457E-1,2.5363898E-1,2.3365402E-1,3.9315104E-2,2.579471E-1,2.877156E-1,1.1840612E-1,3.6298293E-1,8.464521E-2,1.05959535E-1,8.253073E-2,8.5514784E-2,0E0,0E0,0E0,0E0,0E0,0E0,0E0,0E0,0E0,0E0,0E0,0E0,0E0,0E0,0E0,0E0],"parents":[2147483647,0,0,1,1,2,2,3,3,4,4,5,5,6,6,7,7,8,8,9,9,10,10,11,11,12,12,13,13,14,14],"right_children":[2,4,6,8,10,12,14,16,18,20,22,24,26,28,30,-1,-1,-1,-1,-1,-1,-1,-1,-1,-1,-1,-1,-1,-1,-1,-1],"split_conditions":[-7.2818913E0,5.4774606E-1,-6.695616E0,4.4912106E-1,-3.0579576E-1,-6.96294E0,-1.6302153E1,-1.0965668E-2,1.868694E-1,-1.0687321E1,4.6624383E-1,2.7394494E-1,-6.9313684E0,1.6961084E-1,2.2741586E-1,-5.9595252E-3,2.2556453E-3,-5.828361E-3,1.0356593E-2,1.5368277E-2,2.775669E-3,8.987304E-3,2.6220256E-3,-3.5818727E-3,-1.4731318E-2,4.058555E-3,-5.074942E-3,2.7774156E-3,-1.1094302E-2,-1.4723957E-3,-1.8271288E-2],"split_indices":[3,1,3,1,2,3,4,2,2,3,0,1,3,0,1,0,0,0,0,0,0,0,0,0,0,0,0,0,0,0,0],"split_type":[0,0,0,0,0,0,0,0,0,0,0,0,0,0,0,0,0,0,0,0,0,0,0,0,0,0,0,0,0,0,0],"sum_hessian":[3.06E2,2.55E2,5.1E1,1.38E2,1.17E2,3.4E1,1.7E1,8.3E1,5.5E1,1.1E1,1.06E2,1.2E1,2.2E1,4E0,1.3E1,1E1,7.3E1,5.3E1,2E0,8E0,3E0,3.2E1,7.4E1,3E0,9E0,3E0,1.9E1,1E0,3E0,1E0,1.2E1],"tree_param":{"num_deleted":"0","num_feature":"5","num_nodes":"31","size_leaf_vector":"1"}},{"base_weights":[2.8435427E-3,-6.760444E-2,1.1590614E-1,-2.2474012E-1,-3.4078475E-2,1.5732095E-1,2.1804055E-2,-3.5383335E-1,-1.5884131E-1,4.9929243E-2,-7.100569E-2,1.7002606E-1,5.2652977E-2,-7.332406E-2,5.6229133E-2,-3.6019725E-3,-2.0763844E-2,-1.1534068E-2,-4.291751E-3,-1.1108768E-2,3.033723E-3,-3.0260226E-3,-1.6162453E-2,1.2539114E-2,6.2585636E-3,-8.777589E-4,1.1116187E-2,-4.8263604E-3,3.3876062E-3,4.0096897E-3,-8.110968E-3],"categories":[],"categories_nodes":[],"categories_segments":[],"categories_sizes":[],"default_left":[0,0,0,0,0,0,0,0,0,0,0,0,0,0,0,0,0,0,0,0,0,0,0,0,0,0,0,0,0,0,0],"id":37,"left_children":[1,3,5,7,9,11,13,15,17,19,21,23,25,27,29,-1,-1,-1,-1,-1,-1,-1,-1,-1,-1,-1,-1,-1,-1,-1,-1],"loss_changes":[2.365485E0,9.564079E-1,4.4085264E-1,2.1602356E-1,4.750752E-1,9.610331E-2,1.2201548E-1,1.4322793E-1,1.0082936E-1,1.5090004E-1,2.6078892E-1,2.2217035E-1,1.2302563E-1,3.9274033E-2,1.5435514E-1,0E0,0E0,0E0,0E0,0E0,0E0,0E0,0E0,0E0,0E0,0E0,0E0,0E0,0E0,0E0,0E0],"parents":[2147483647,0,0,1,1,2,2,3,3,4,4,5,5,6,6,7,7,8,8,9,9,10,10,11,11,12,12,13,13,14,14],"right_children":[2,4,6,8,10,12,14,16,18,20,22,24,26,28,30,-1,-1,-1,-1,-1,-1,-1,-1,-1,-1,-1,-1,-1,-1,-1,-1],"split_conditions":[5.44861E-1,2.9464698E-1,-1.0638262E1,2.4533E-1,-2.07049E1,1.2879026E-1,-1.0587638E1,-6.7212796E0,-6.9020224E0,-2.1878666E1,5.397805E-1,4.559296E-1,6.4646286E-1,5.1675105E-1,5.2610445E-1,-3.6019725E-3,-2.0763844E-2,-1.1534068E-2,-4.291751E-3,-1.1108768E-2,3.033723E-3,-3.0260226E-3,-1.6162453E-2,1.2539114E-2,6.2585636E-3,-8.777589E-4,1.1116187E-2,-4.8263604E-3,3.3876062E-3,4.0096897E-3,-8.110968E-3],"split_indices":[1,1,3,1,4,2,3,3,3,4,1,0,1,0,0,0,0,0,0,0,0,0,0,0,0,0,0,0,0,0,0],"split_type":[0,0,0,0,0,0,0,0,0,0,0,0,0,0,0,0,0,0,0,0,0,0,0,0,0,0,0,0,0,0,0],"sum_hessian":[2.95E2,1.82E2,1.13E2,3.1E1,1.51E2,7.8E1,3.5E1,9E0,2.2E1,4.6E1,1.05E2,6.9E1,9E0,9E0,2.6E1,2E0,7E0,1E1,1.2E1,1E0,4.5E1,1.02E2,3E0,2.3E1,4.6E1,7E0,2E0,8E0,1E0,2.4E1,2E0],"tree_param":{"num_deleted":"0","num_feature":"5","num_nodes":"31","size_leaf_vector":"1"}},{"base_weights":[-2.797276E-3,-7.575209E-2,9.867736E-2,1.0419453E-2,-1.4006048E-1,1.3839139E-1,4.6781078E-2,8.881092E-2,-3.3688158E-2,-1.7017855E-1,2.054035E-2,1.2499047E-1,3.349595E-1,1.7395647E-1,2.840836E-2,1.7736763E-3,7.3812674E-3,-8.154277E-3,-2.579025E-4,-7.838418E-3,-1.7803505E-2,6.9791796E-3,-3.8374139E-3,6.7061926E-3,-2.847898E-3,2.0220121E-2,3.1657696E-3,1.1307822E-2,1.4485519E-3,-1.6328918E-3,4.661176E-3],"categories":[],"categories_nodes":[],"categories_segments":[],"categories_sizes":[],"default_left":[0,0,0,0,0,0,0,0,0,0,0,0,0,0,0,0,0,0,0,0,0,0,0,0,0,0,0,0,0,0,0],"id":38,"left_children":[1,3,5,7,9,11,13,15,17,19,21,23,25,27,29,-1,-1,-1,-1,-1,-1,-1,-1,-1,-1,-1,-1,-1,-1,-1,-1],"loss_changes":[2.2654092E0,9.878557E-1,2.573352E-1,2.6923174E-1,4.9686813E-1,1.4779532E-1,1.2824197E-1,8.259942E-2,1.8374486E-1,1.5856385E-1,2.075992E-1,1.2230408E-1,4.9850166E-2,4.6425655E-2,2.0490323E-1,0E0,0E0,0E0,0E0,0E0,0E0,0E0,0E0,0E0,0E0,0E0,0E0,0E0,0E0,0E0,0E0],"parents":[2147483647,0,0,1,1,2,2,3,3,4,4,5,5,6,6,7,7,8,8,9,9,10,10,11,11,12,12,13,13,14,14],"right_children":[2,4,6,8,10,12,14,16,18,20,22,24,26,28,30,-1,-1,-1,-1,-1,-1,-1,-1,-1,-1,-1,-1,-1,-1,-1,-1],"split_conditions":[3.7525135E-1,-1.9011108E1,-1.695719E1,1.2604949E-1,-1.5592312E1,5.295207E-1,4.4307426E-1,2.52673E-1,-1.3934573E1,-6.4899726E0,3.4633884E-1,5.271843E-1,6.435262E-1,-1.5713111E1,5.9436834E-1,1.7736763E-3,7.3812674E-3,-8.154277E-3,-2.579025E-4,-7.838418E-3,-1.7803505E-2,6.9791796E-3,-3.8374139E-3,6.7061926E-3,-2.847898E-3,2.0220121E-2,3.1657696E-3,1.1307822E-2,1.4485519E-3,-1.6328918E-3,4.661176E-3],"split_indices":[0,4,4,2,4,0,1,0,3,3,0,0,1,4,1,0,0,0,0,0,0,0,0,0,0,0,0,0,0,0,0],"split_type":[0,0,0,0,0,0,0,0,0,0,0,0,0,0,0,0,0,0,0,0,0,0,0,0,0,0,0,0,0,0,0],"sum_hessian":[3.04E2,1.77E2,1.27E2,7.6E1,1.01E2,7.1E1,5.6E1,2.7E1,4.9E1,8.5E1,1.6E1,6.8E1,3E0,6E0,5E1,1.5E1,1.2E1,8E0,4.1E1,8.1E1,4E0,7E0,9E0,6.5E1,3E0,2E0,1E0,4E0,2E0,2.6E1,2.4E1],"tree_param":{"num_deleted":"0","num_feature":"5","num_nodes":"31","size_leaf_vector":"1"}},{"base_weights":[3.8296485E-3,-4.5590386E-2,1.08537E-1,-1.716563E-1,-1.3984263E-2,1.9835101E-1,7.747616E-2,-1.12563886E-1,-2.691382E-1,2.6357748E-2,-8.143976E-2,2.1758224E-1,-5.6184055E-3,-4.8153836E-2,1.3605978E-1,-7.29338E-4,-8.178804E-3,-1.5233097E-2,4.816753E-3,-2.8089888E-3,2.464982E-3,-8.873801E-3,-2.6571897E-3,1.1691793E-2,-3.0935884E-3,-5.2264626E-3,6.449902E-3,9.109654E-3,-1.0800546E-4],"categories":[],"categories_nodes":[],"categories_segments":[],"categories_sizes":[],"default_left":[0,0,0,0,0,0,0,0,0,0,0,0,0,0,0,0,0,0,0,0,0,0,0,0,0,0,0,0,0],"id":39,"left_children":[1,3,5,7,9,11,13,15,17,19,21,23,-1,25,27,-1,-1,-1,-1,-1,-1,-1,-1,-1,-1,-1,-1,-1,-1],"loss_changes":[1.4848956E0,7.745682E-1,2.4128473E-1,1.9436193E-1,4.2938915E-1,1.6188616E-1,5.21742E-1,1.275627E-1,2.1111119E-1,1.9023277E-1,1.508972E-1,1.14394784E-1,0E0,2.4318528E-1,3.064674E-1,0E0,0E0,0E0,0E0,0E0,0E0,0E0,0E0,0E0,0E0,0E0,0E0,0E0,0E0],"parents":[2147483647,0,0,1,1,2,2,3,3,4,4,5,5,6,6,7,7,8,8,9,9,10,10,11,11,13,13,14,14],"right_children":[2,4,6,8,10,12,14,16,18,20,22,24,-1,26,28,-1,-1,-1,-1,-1,-1,-1,-1,-1,-1,-1,-1,-1,-1],"split_conditions":[5.873797E-1,2.9464698E-1,4.559296E-1,-6.7108035E0,4.5539683E-1,6.606615E-1,4.891527E-1,2.629721E-1,-6.400735E0,2.3780361E-1,-1.9203163E1,-1.737785E1,-5.6184055E-3,6.471394E-1,-1.055768E1,-7.29338E-4,-8.178804E-3,-1.5233097E-2,4.816753E-3,-2.8089888E-3,2.464982E-3,-8.873801E-3,-2.6571897E-3,1.1691793E-2,-3.0935884E-3,-5.2264626E-3,6.449902E-3,9.109654E-3,-1.0800546E-4],"split_indices":[1,1,0,3,1,1,0,1,3,0,4,4,0,1,3,0,0,0,0,0,0,0,0,0,0,0,0,0,0],"split_type":[0,0,0,0,0,0,0,0,0,0,0,0,0,0,0,0,0,0,0,0,0,0,0,0,0,0,0,0,0],"sum_hessian":[2.85E2,1.94E2,9.1E1,3.8E1,1.56E2,2.2E1,6.9E1,2.5E1,1.3E1,9.8E1,5.8E1,2.1E1,1E0,2.2E1,4.7E1,9E0,1.6E1,1.2E1,1E0,2.1E1,7.7E1,1.2E1,4.6E1,2E1,1E0,1.7E1,5E0,3.5E1,1.2E1],"tree_param":{"num_deleted":"0","num_feature":"5","num_nodes":"29","size_leaf_vector":"1"}},{"base_weights":[-2.7026897E-3,-6.407047E-2,6.4302295E-2,7.4758464E-3,-1.2307891E-1,3.9725788E-2,1.675087E-1,-1.0420137E-2,2.4578686E-1,-3.0542144E-1,-1.0016772E-1,-5.7582352E-2,5.7016905E-2,2.663871E-1,7.064686E-2,6.2968456E-3,-2.1230264E-3,3.4776926E-3,1.36228325E-2,-5.145848E-3,-1.9476043E-2,-1.1350183E-2,-3.6629748E-3,-8.4120914E-4,-9.801495E-3,-1.2579227E-2,3.1366546E-3,7.923961E-3,1.8293321E-2,-5.963546E-3,6.403277E-3],"categories":[],"categories_nodes":[],"categories_segments":[],"categories_sizes":[],"default_left":[0,0,0,0,0,0,0,0,0,0,0,0,0,0,0,0,0,0,0,0,0,0,0,0,0,0,0,0,0,0,0],"id":40,"left_children":[1,3,5,7,9,11,13,15,17,19,21,23,25,27,29,-1,-1,-1,-1,-1,-1,-1,-1,-1,-1,-1,-1,-1,-1,-1,-1],"loss_changes":[1.2212564E0,6.553049E-1,3.53522E-1,3.0536264E-1,3.2450974E-1,1.9846088E-1,2.3977423E-1,2.9806587E-1,4.5500696E-3,1.1318624E-1,2.4616545E-1,9.82736E-2,1.904209E-1,8.1567764E-2,1.7884693E-1,0E0,0E0,0E0,0E0,0E0,0E0,0E0,0E0,0E0,0E0,0E0,0E0,0E0,0E0,0E0,0E0],"parents":[2147483647,0,0,1,1,2,2,3,3,4,4,5,5,6,6,7,7,8,8,9,9,10,10,11,11,12,12,13,13,14,14],"right_children":[2,4,6,8,10,12,14,16,18,20,22,24,26,28,30,-1,-1,-1,-1,-1,-1,-1,-1,-1,-1,-1,-1,-1,-1,-1,-1],"split_conditions":[3.576182E-1,-1.9011108E1,5.111855E-1,-1.0687321E1,2.4533E-1,-1.9848657E-1,-1.7069752E1,-2.1698635E1,8.49169E-2,1.592879E-1,-1.8442114E1,-2.0908782E-1,3.961712E-1,-3.1294012E-1,-1.7036776E1,6.2968456E-3,-2.1230264E-3,3.4776926E-3,1.36228325E-2,-5.145848E-3,-1.9476043E-2,-1.1350183E-2,-3.6629748E-3,-8.4120914E-4,-9.801495E-3,-1.2579227E-2,3.1366546E-3,7.923961E-3,1.8293321E-2,-5.963546E-3,6.403277E-3],"split_indices":[0,4,0,3,1,2,4,4,2,0,4,2,1,2,4,0,0,0,0,0,0,0,0,0,0,0,0,0,0,0,0],"split_type":[0,0,0,0,0,0,0,0,0,0,0,0,0,0,0,0,0,0,0,0,0,0,0,0,0,0,0,0,0,0,0],"sum_hessian":[2.95E2,1.54E2,1.41E2,7E1,8.4E1,1.15E2,2.6E1,6.6E1,4E0,8E0,7.6E1,1.7E1,9.8E1,1.2E1,1.4E1,1.2E1,5.4E1,1E0,3E0,3E0,5E0,1.2E1,6.4E1,1.4E1,3E0,1E0,9.7E1,7E0,5E0,3E0,1.1E1],"tree_param":{"num_deleted":"0","num_feature":"5","num_nodes":"31","size_leaf_vector":"1"}},{"base_weights":[-6.1101113E-3,-6.447552E-2,8.267397E-2,-3.1685207E-2,-1.587707E-1,5.739037E-2,1.6264872E-1,4.1556503E-3,-1.1541282E-1,-1.2407668E-1,-2.6418903E-1,1.2451986E-1,1.7932618E-2,2.5517026E-1,9.193166E-2,-2.656718E-4,1.1518741E-2,-7.1492055E-3,5.860577E-3,-9.307058E-3,-1.8229667E-3,-1.6816378E-3,-1.419407E-2,3.20187E-3,9.617023E-3,-7.2539123E-3,2.2637679E-3,7.547653E-3,1.8544188E-2,7.347753E-3,-7.7636243E-4],"categories":[],"categories_nodes":[],"categories_segments":[],"categories_sizes":[],"default_left":[0,0,0,0,0,0,0,0,0,0,0,0,0,0,0,0,0,0,0,0,0,0,0,0,0,0,0,0,0,0,0],"id":41,"left_children":[1,3,5,7,9,11,13,15,17,19,21,23,25,27,29,-1,-1,-1,-1,-1,-1,-1,-1,-1,-1,-1,-1,-1,-1,-1,-1],"loss_changes":[1.6065435E0,5.731673E-1,2.3937774E-1,4.2060137E-1,1.4277494E-1,2.49401E-1,1.6628444E-1,2.1329087E-1,2.8613698E-1,1.9985443E-1,4.0394425E-2,1.3125151E-1,2.7845538E-1,8.87261E-2,1.0871139E-1,0E0,0E0,0E0,0E0,0E0,0E0,0E0,0E0,0E0,0E0,0E0,0E0,0E0,0E0,0E0,0E0],"parents":[2147483647,0,0,1,1,2,2,3,3,4,4,5,5,6,6,7,7,8,8,9,9,10,10,11,11,12,12,13,13,14,14],"right_children":[2,4,6,8,10,12,14,16,18,20,22,24,26,28,30,-1,-1,-1,-1,-1,-1,-1,-1,-1,-1,-1,-1,-1,-1,-1,-1],"split_conditions":[5.44861E-1,-7.2818913E0,5.112648E-1,4.9790585E-1,-1.6124905E1,4.6624383E-1,-1.7190287E1,-8.594109E0,-1.8378136E1,-1.6255537E1,2.4001808E-1,-1.758528E1,-1.7271961E1,-3.1562445E-1,5.287034E-1,-2.656718E-4,1.1518741E-2,-7.1492055E-3,5.860577E-3,-9.307058E-3,-1.8229667E-3,-1.6816378E-3,-1.419407E-2,3.20187E-3,9.617023E-3,-7.2539123E-3,2.2637679E-3,7.547653E-3,1.8544188E-2,7.347753E-3,-7.7636243E-4],"split_indices":[1,3,0,1,4,0,4,3,4,4,1,4,4,2,0,0,0,0,0,0,0,0,0,0,0,0,0,0,0,0,0],"split_type":[0,0,0,0,0,0,0,0,0,0,0,0,0,0,0,0,0,0,0,0,0,0,0,0,0,0,0,0,0,0,0],"sum_hessian":[3.08E2,1.86E2,1.22E2,1.39E2,4.7E1,9.4E1,2.8E1,9.8E1,4.1E1,3.7E1,1E1,3.4E1,6E1,1.1E1,1.7E1,9.5E1,3E0,3.7E1,4E0,2.1E1,1.6E1,1E0,9E0,1.9E1,1.5E1,8E0,5.2E1,7E0,4E0,1.1E1,6E0],"tree_param":{"num_deleted":"0","num_feature":"5","num_nodes":"31","size_leaf_vector":"1"}},{"base_weights":[-3.4718842E-3,2.3102311E-2,-1.6224937E-1,-1.8265335E-2,8.5904405E-2,-2.546186E-1,-1.2858336E-1,2.0789761E-2,-7.453517E-2,9.2324436E-2,-8.371576E-3,-2.6028038E-3,-2.9384845E-1,-1.6786462E-1,-2.7618343E-2,-4.8212144E-3,1.8451734E-3,-6.5989005E-3,-1.3612055E-3,7.973049E-3,3.2920116E-3,-1.6856771E-2,-4.744804E-3,3.7163198E-3,-9.052643E-3,-2.6265313E-3,5.5376114E-3],"categories":[],"categories_nodes":[],"categories_segments":[],"categories_sizes":[],"default_left":[0,0,0,0,0,0,0,0,0,0,0,0,0,0,0,0,0,0,0,0,0,0,0,0,0,0,0],"id":42,"left_children":[1,3,5,7,9,11,13,15,17,19,-1,-1,21,23,25,-1,-1,-1,-1,-1,-1,-1,-1,-1,-1,-1,-1],"loss_changes":[1.3244156E0,7.004243E-1,1.0719693E-1,3.5976225E-1,1.8948549E-1,7.2114885E-2,1.34175E-1,1.867674E-1,1.7849171E-1,1.7619711E-1,0E0,0E0,4.5515537E-2,9.330875E-2,4.373627E-2,0E0,0E0,0E0,0E0,0E0,0E0,0E0,0E0,0E0,0E0,0E0,0E0],"parents":[2147483647,0,0,1,1,2,2,3,3,4,4,5,5,6,6,7,7,8,8,9,9,12,12,13,13,14,14],"right_children":[2,4,6,8,10,12,14,16,18,20,-1,-1,22,24,26,-1,-1,-1,-1,-1,-1,-1,-1,-1,-1,-1,-1],"split_conditions":[-7.2818913E0,5.864021E-1,2.4533E-1,4.5263433E-1,6.737062E-1,-6.7212796E0,1.7194964E-1,-1.0965668E-2,5.164285E-1,4.6624383E-1,-8.371576E-3,-2.6028038E-3,3.5551324E-2,2.4652925E-1,-1.6124905E1,-4.8212144E-3,1.8451734E-3,-6.5989005E-3,-1.3612055E-3,7.973049E-3,3.2920116E-3,-1.6856771E-2,-4.744804E-3,3.7163198E-3,-9.052643E-3,-2.6265313E-3,5.5376114E-3],"split_indices":[3,1,1,1,1,3,0,2,1,0,0,0,2,1,4,0,0,0,0,0,0,0,0,0,0,0,0],"split_type":[0,0,0,0,0,0,0,0,0,0,0,0,0,0,0,0,0,0,0,0,0,0,0,0,0,0,0],"sum_hessian":[3.12E2,2.68E2,4.4E1,1.62E2,1.06E2,1E1,3.4E1,9.6E1,6.6E1,1.04E2,2E0,2E0,8E0,2.4E1,1E1,1.1E1,8.5E1,2.9E1,3.7E1,2.8E1,7.6E1,6E0,2E0,1E0,2.3E1,9E0,1E0],"tree_param":{"num_deleted":"0","num_feature":"5","num_nodes":"27","size_leaf_vector":"1"}},{"base_weights":[2.4731626E-4,-1.3215183E-1,2.2489382E-2,-1.6483673E-1,-2.505465E-2,5.3029223E-3,1.3151799E-1,-1.3952601E-1,-1.5356517E-2,1.631306E-1,-8.499922E-2,5.5527583E-2,-2.9389307E-2,1.8236847E-1,6.291315E-2,-9.146516E-3,-1.1373189E-3,1.105243E-3,1.11295525E-2,-6.108044E-3,5.3073526E-3,2.316773E-3,1.5179499E-2,-2.4832063E-3,1.9586529E-3,4.7835386E-3,1.5866293E-2,6.8802596E-4,6.20718E-3],"categories":[],"categories_nodes":[],"categories_segments":[],"categories_sizes":[],"default_left":[0,0,0,0,0,0,0,0,0,0,0,0,0,0,0,0,0,0,0,0,0,0,0,0,0,0,0,0,0],"id":43,"left_children":[1,3,5,7,9,11,13,15,-1,17,19,21,23,25,27,-1,-1,-1,-1,-1,-1,-1,-1,-1,-1,-1,-1,-1,-1],"loss_changes":[8.5991764E-1,1.428895E-1,4.677565E-1,7.239705E-2,1.3795349E-1,3.797339E-1,1.0713869E-1,1.428324E-1,0E0,2.0236008E-2,7.689684E-2,1.888726E-1,1.8126702E-1,1.9195062E-1,4.644592E-2,0E0,0E0,0E0,0E0,0E0,0E0,0E0,0E0,0E0,0E0,0E0,0E0,0E0,0E0],"parents":[2147483647,0,0,1,1,2,2,3,3,4,4,5,5,6,6,7,7,9,9,10,10,11,11,12,12,13,13,14,14],"right_children":[2,4,6,8,10,12,14,16,-1,18,20,22,24,26,28,-1,-1,-1,-1,-1,-1,-1,-1,-1,-1,-1,-1,-1,-1],"split_conditions":[1.7406613E-1,2.9464698E-1,4.9998814E-1,6.874199E-2,2.9880637E-1,-1.0953184E1,-1.0645834E1,3.675802E-2,-1.5356517E-2,1.6074103E-1,6.2170602E-2,-1.0957858E1,-8.897368E0,-1.07185135E1,-1.701505E1,-9.146516E-3,-1.1373189E-3,1.105243E-3,1.11295525E-2,-6.108044E-3,5.3073526E-3,2.316773E-3,1.5179499E-2,-2.4832063E-3,1.9586529E-3,4.7835386E-3,1.5866293E-2,6.8802596E-4,6.20718E-3],"split_indices":[0,1,0,2,1,3,3,2,0,0,2,3,3,3,4,0,0,0,0,0,0,0,0,0,0,0,0,0,0],"split_type":[0,0,0,0,0,0,0,0,0,0,0,0,0,0,0,0,0,0,0,0,0,0,0,0,0,0,0,0,0],"sum_hessian":[2.9E2,4.1E1,2.49E2,3.1E1,1E1,2.16E2,3.3E1,2.8E1,3E0,2E0,8E0,8.8E1,1.28E2,1.8E1,1.5E1,2E1,8E0,1E0,1E0,7E0,1E0,8.6E1,2E0,9.9E1,2.9E1,1.2E1,6E0,9E0,6E0],"tree_param":{"num_deleted":"0","num_feature":"5","num_nodes":"29","size_leaf_vector":"1"}},{"base_weights":[8.319798E-3,3.2622408E-2,-1.1038722E-1,5.9941723E-3,8.079599E-2,-1.5740794E-1,-2.0662189E-2,1.082817E-1,-2.3642669E-2,2.4624427E-1,6.737742E-2,-2.5191507E-1,-1.1540911E-1,-1.6953287E-1,3.398178E-2,9.737154E-4,9.553673E-3,-2.3522868E-3,3.6452492E-3,1.527381E-3,1.4163705E-2,3.9926562E-3,-9.481216E-3,-3.934705E-3,-1.6270494E-2,-9.99621E-3,-3.4424271E-3,7.294595E-4,-1.0960534E-2,8.432846E-3,-1.2594064E-4],"categories":[],"categories_nodes":[],"categories_segments":[],"categories_sizes":[],"default_left":[0,0,0,0,0,0,0,0,0,0,0,0,0,0,0,0,0,0,0,0,0,0,0,0,0,0,0,0,0,0,0],"id":44,"left_children":[1,3,5,7,9,11,13,15,17,19,21,23,25,27,29,-1,-1,-1,-1,-1,-1,-1,-1,-1,-1,-1,-1,-1,-1,-1,-1],"loss_changes":[8.3156466E-1,3.060995E-1,2.0347548E-1,4.7243935E-1,1.7211545E-1,9.794074E-2,1.5218897E-1,2.536171E-1,2.7683076E-1,3.9269894E-2,2.7164432E-1,8.896971E-2,8.067721E-2,4.8932016E-2,6.924492E-2,0E0,0E0,0E0,0E0,0E0,0E0,0E0,0E0,0E0,0E0,0E0,0E0,0E0,0E0,0E0,0E0],"parents":[2147483647,0,0,1,1,2,2,3,3,4,4,5,5,6,6,7,7,8,8,9,9,10,10,11,11,12,12,13,13,14,14],"right_children":[2,4,6,8,10,12,14,16,18,20,22,24,26,28,30,-1,-1,-1,-1,-1,-1,-1,-1,-1,-1,-1,-1,-1,-1,-1,-1],"split_conditions":[-8.710416E0,5.957847E-1,3.8906325E-2,-1.3386172E1,4.3846717E-1,2.4742424E-1,1.599989E-1,-1.3901745E1,-8.9876995E0,4.3509513E-1,1.3885675E-1,1.592879E-1,-7.1162753E0,4.1901205E-2,1.6367878E-1,9.737154E-4,9.553673E-3,-2.3522868E-3,3.6452492E-3,1.527381E-3,1.4163705E-2,3.9926562E-3,-9.481216E-3,-3.934705E-3,-1.6270494E-2,-9.99621E-3,-3.4424271E-3,7.294595E-4,-1.0960534E-2,8.432846E-3,-1.2594064E-4],"split_indices":[3,1,2,3,0,1,0,3,3,0,2,0,3,2,0,0,0,0,0,0,0,0,0,0,0,0,0,0,0,0,0],"split_type":[0,0,0,0,0,0,0,0,0,0,0,0,0,0,0,0,0,0,0,0,0,0,0,0,0,0,0,0,0,0,0],"sum_hessian":[2.86E2,2.38E2,4.8E1,1.54E2,8.4E1,3.1E1,1.7E1,3.4E1,1.2E2,5E0,7.9E1,8E0,2.3E1,4E0,1.3E1,1.7E1,1.7E1,9.7E1,2.3E1,1E0,4E0,7.6E1,3E0,3E0,5E0,7E0,1.6E1,1E0,3E0,2E0,1.1E1],"tree_param":{"num_deleted":"0","num_feature":"5","num_nodes":"31","size_leaf_vector":"1"}},{"base_weights":[2.3980801E-4,-4.637155E-2,5.930275E-2,8.357836E-3,-8.736254E-2,1.7723216E-1,4.016212E-2,-5.8258E-3,1.9958372E-1,-1.5343523E-1,-5.1366337E-2,2.644202E-1,6.0664073E-2,1.8800184E-1,3.0208044E-2,5.667766E-3,-1.5407178E-3,-2.276957E-3,1.3612461E-2,-3.4188032E-3,-1.3951789E-2,-5.041262E-3,4.4197273E-3,4.152006E-3,1.6514584E-2,1.2325669E-2,-1.3825962E-3,1.2197491E-2,-3.69215E-3,-3.0838794E-3,2.0106747E-3],"categories":[],"categories_nodes":[],"categories_segments":[],"categories_sizes":[],"default_left":[0,0,0,0,0,0,0,0,0,0,0,0,0,0,0,0,0,0,0,0,0,0,0,0,0,0,0,0,0,0,0],"id":45,"left_children":[1,3,5,7,9,11,13,15,17,19,21,23,25,27,29,-1,-1,-1,-1,-1,-1,-1,-1,-1,-1,-1,-1,-1,-1,-1,-1],"loss_changes":[8.176391E-1,3.731365E-1,2.8858086E-1,1.9644679E-1,2.1806341E-1,1.6689944E-1,1.620841E-1,2.0600812E-1,1.0145788E-1,3.3347535E-1,4.4439483E-1,9.2050254E-2,1.5453777E-1,1.2056178E-1,1.0177081E-1,0E0,0E0,0E0,0E0,0E0,0E0,0E0,0E0,0E0,0E0,0E0,0E0,0E0,0E0,0E0,0E0],"parents":[2147483647,0,0,1,1,2,2,3,3,4,4,5,5,6,6,7,7,8,8,9,9,10,10,11,11,12,12,13,13,14,14],"right_children":[2,4,6,8,10,12,14,16,18,20,22,24,26,28,30,-1,-1,-1,-1,-1,-1,-1,-1,-1,-1,-1,-1,-1,-1,-1,-1],"split_conditions":[3.7525135E-1,-1.9011108E1,-2.8019223E-1,-1.0687321E1,-8.879377E0,-1.7069752E1,-1.1310729E1,9.796149E-2,3.3241093E-1,-1.0520348E1,-1.5745705E1,-3.24842E-1,-3.2718524E-1,-1.7404709E1,-1.752454E1,5.667766E-3,-1.5407178E-3,-2.276957E-3,1.3612461E-2,-3.4188032E-3,-1.3951789E-2,-5.041262E-3,4.4197273E-3,4.152006E-3,1.6514584E-2,1.2325669E-2,-1.3825962E-3,1.2197491E-2,-3.69215E-3,-3.0838794E-3,2.0106747E-3],"split_indices":[0,4,2,3,3,4,3,2,0,3,4,2,2,4,4,0,0,0,0,0,0,0,0,0,0,0,0,0,0,0,0],"split_type":[0,0,0,0,0,0,0,0,0,0,0,0,0,0,0,0,0,0,0,0,0,0,0,0,0,0,0,0,0,0,0],"sum_hessian":[2.95E2,1.65E2,1.3E2,7.1E1,9.4E1,1.7E1,1.13E2,6.7E1,4E0,3.2E1,6.2E1,9E0,8E0,6E0,1.07E2,1.1E1,5.6E1,1E0,3E0,2E1,1.2E1,4.6E1,1.6E1,3E0,6E0,2E0,6E0,5E0,1E0,1E1,9.7E1],"tree_param":{"num_deleted":"0","num_feature":"5","num_nodes":"31","size_leaf_vector":"1"}},{"base_weights":[-2.1304104E-3,4.283302E-2,-7.213796E-2,5.3880624E-3,7.374531E-2,-1.2195631E-1,-3.91703E-4,2.7251286E-2,-1.4814433E-1,1.4993669E-1,4.0830743E-2,-1.5816931E-1,4.5074997E-3,-2.3749578E-1,3.0543432E-2,4.8253537E-4,8.892498E-3,-1.3014874E-2,5.659902E-3,3.6083073E-3,1.091681E-2,-9.874403E-3,3.2381553E-3,-6.4938553E-3,-1.4574337E-2,-4.929859E-3,5.3555677E-3,-3.9338786E-3,-1.4861775E-2,1.6314972E-2,1.16046635E-4],"categories":[],"categories_nodes":[],"categories_segments":[],"categories_sizes":[],"default_left":[0,0,0,0,0,0,0,0,0,0,0,0,0,0,0,0,0,0,0,0,0,0,0,0,0,0,0,0,0,0,0],"id":46,"left_children":[1,3,5,7,9,11,13,15,17,19,21,23,25,27,29,-1,-1,-1,-1,-1,-1,-1,-1,-1,-1,-1,-1,-1,-1,-1,-1],"loss_changes":[9.820494E-1,2.1952942E-1,4.3601447E-1,2.9607117E-1,2.546898E-1,3.304466E-1,3.8133112E-1,2.0238166E-1,3.5187918E-1,1.4914697E-1,4.3485126E-1,1.7336583E-1,1.9040282E-1,3.3540726E-2,3.8320342E-1,0E0,0E0,0E0,0E0,0E0,0E0,0E0,0E0,0E0,0E0,0E0,0E0,0E0,0E0,0E0,0E0],"parents":[2147483647,0,0,1,1,2,2,3,3,4,4,5,5,6,6,7,7,8,8,9,9,10,10,11,11,12,12,13,13,14,14],"right_children":[2,4,6,8,10,12,14,16,18,20,22,24,26,28,30,-1,-1,-1,-1,-1,-1,-1,-1,-1,-1,-1,-1,-1,-1,-1,-1],"split_conditions":[-1.054037E1,3.6157387E-1,3.5404596E-1,3.5362318E-1,4.559296E-1,-1.5745705E1,-1.8378136E1,-1.0687321E1,-1.0615485E1,-1.112362E1,-1.740168E1,-1.6026546E1,-8.840624E0,-1.8613516E1,3.5872215E-1,4.8253537E-4,8.892498E-3,-1.3014874E-2,5.659902E-3,3.6083073E-3,1.091681E-2,-9.874403E-3,3.2381553E-3,-6.4938553E-3,-1.4574337E-2,-4.929859E-3,5.3555677E-3,-3.9338786E-3,-1.4861775E-2,1.6314972E-2,1.16046635E-4],"split_indices":[3,0,0,0,0,4,4,3,3,3,4,4,3,4,0,0,0,0,0,0,0,0,0,0,0,0,0,0,0,0,0],"split_type":[0,0,0,0,0,0,0,0,0,0,0,0,0,0,0,0,0,0,0,0,0,0,0,0,0,0,0,0,0,0,0],"sum_hessian":[3.1E2,1.89E2,1.21E2,8.6E1,1.03E2,7.1E1,5E1,7.6E1,1E1,3E1,7.3E1,5.5E1,1.6E1,5E0,4.5E1,6.9E1,7E0,7E0,3E0,1.5E1,1.5E1,6E0,6.7E1,4.7E1,8E0,8E0,8E0,2E0,3E0,3E0,4.2E1],"tree_param":{"num_deleted":"0","num_feature":"5","num_nodes":"31","size_leaf_vector":"1"}},{"base_weights":[-2.518226E-3,-4.9753487E-2,5.1387623E-2,2.1323785E-2,-7.898788E-2,2.0007938E-1,4.219561E-2,-8.701151E-2,8.354028E-2,-1.0169745E-1,2.1634286E-2,1.2487408E-2,-3.690052E-3,2.637594E-2,1.18083745E-1,2.9180103E-3,-1.0457246E-2,6.457299E-3,5.2298215E-4,-5.696433E-3,4.834084E-3,-2.326213E-3,1.6998941E-2,-4.6322173E-3,1.9415383E-3,-4.0613175E-3,8.215942E-3],"categories":[],"categories_nodes":[],"categories_segments":[],"categories_sizes":[],"default_left":[0,0,0,0,0,0,0,0,0,0,0,0,0,0,0,0,0,0,0,0,0,0,0,0,0,0,0],"id":47,"left_children":[1,3,5,7,9,11,13,15,17,19,21,-1,-1,23,25,-1,-1,-1,-1,-1,-1,-1,-1,-1,-1,-1,-1],"loss_changes":[7.7407247E-1,3.383043E-1,1.856398E-1,3.308006E-1,2.6498508E-1,1.2725815E-1,1.5895636E-1,3.3179104E-1,1.01968855E-1,2.3909783E-1,4.931711E-1,0E0,0E0,1.7110606E-1,2.252948E-1,0E0,0E0,0E0,0E0,0E0,0E0,0E0,0E0,0E0,0E0,0E0,0E0],"parents":[2147483647,0,0,1,1,2,2,3,3,4,4,5,5,6,6,7,7,8,8,9,9,10,10,13,13,14,14],"right_children":[2,4,6,8,10,12,14,16,18,20,22,-1,-1,24,26,-1,-1,-1,-1,-1,-1,-1,-1,-1,-1,-1,-1],"split_conditions":[3.63423E-1,-2.07049E1,-1.1310729E1,2.3845659E-1,-1.58468485E1,-1.737785E1,5.21076E-1,2.3308426E-1,-2.1109598E1,5.4774606E-1,3.53925E-1,1.2487408E-2,-3.690052E-3,-2.4678212E-1,6.304501E-1,2.9180103E-3,-1.0457246E-2,6.457299E-3,5.2298215E-4,-5.696433E-3,4.834084E-3,-2.326213E-3,1.6998941E-2,-4.6322173E-3,1.9415383E-3,-4.0613175E-3,8.215942E-3],"split_indices":[0,4,3,0,4,4,0,0,4,1,0,0,0,2,1,0,0,0,0,0,0,0,0,0,0,0,0],"split_type":[0,0,0,0,0,0,0,0,0,0,0,0,0,0,0,0,0,0,0,0,0,0,0,0,0,0,0],"sum_hessian":[3.02E2,1.61E2,1.41E2,4.7E1,1.14E2,7E0,1.34E2,1.7E1,3E1,9.3E1,2.1E1,6E0,1E0,1.12E2,2.2E1,8E0,9E0,1.8E1,1.2E1,8.8E1,5E0,1.8E1,3E0,1E1,1.02E2,4E0,1.8E1],"tree_param":{"num_deleted":"0","num_feature":"5","num_nodes":"27","size_leaf_vector":"1"}},{"base_weights":[6.102988E-3,-4.4787634E-2,8.473972E-2,-2.9341081E-2,-2.1686274E-1,6.501856E-2,1.7910859E-1,-4.087149E-2,6.444647E-2,1.0137558E-3,-2.3524939E-1,8.884276E-2,-1.4126539E-2,2.5868908E-1,1.04497515E-1,-4.807196E-3,-5.5841956E-4,5.3959317E-3,-3.942964E-3,-1.3718597E-2,-5.497723E-3,-3.5301907E-4,5.332829E-3,-1.1913836E-2,1.4620713E-3,2.5438548E-3,1.553979E-2,6.4564343E-3,-4.1611316E-3],"categories":[],"categories_nodes":[],"categories_segments":[],"categories_sizes":[],"default_left":[0,0,0,0,0,0,0,0,0,0,0,0,0,0,0,0,0,0,0,0,0,0,0,0,0,0,0,0,0],"id":48,"left_children":[1,3,5,7,9,11,13,15,17,-1,19,21,23,25,27,-1,-1,-1,-1,-1,-1,-1,-1,-1,-1,-1,-1,-1,-1],"loss_changes":[1.2123607E0,4.82703E-1,2.0982134E-1,1.8647353E-1,7.017225E-2,1.8981189E-1,9.171933E-2,2.4847409E-1,1.2687677E-1,0E0,3.8457572E-2,1.3229996E-1,2.4027006E-1,8.1643164E-2,6.623161E-2,0E0,0E0,0E0,0E0,0E0,0E0,0E0,0E0,0E0,0E0,0E0,0E0,0E0,0E0],"parents":[2147483647,0,0,1,1,2,2,3,3,4,4,5,5,6,6,7,7,8,8,10,10,11,11,12,12,13,13,14,14],"right_children":[2,4,6,8,10,12,14,16,18,-1,20,22,24,26,28,-1,-1,-1,-1,-1,-1,-1,-1,-1,-1,-1,-1,-1,-1],"split_conditions":[3.8543162E-1,-6.695616E0,5.21076E-1,-1.5592312E1,1.5919793E-1,6.4130414E-1,-1.7190287E1,6.06812E-2,-1.5477549E1,1.0137558E-3,3.5551324E-2,-2.225442E-1,6.4588815E-1,-3.3706915E-1,5.301075E-1,-4.807196E-3,-5.5841956E-4,5.3959317E-3,-3.942964E-3,-1.3718597E-2,-5.497723E-3,-3.5301907E-4,5.332829E-3,-1.1913836E-2,1.4620713E-3,2.5438548E-3,1.553979E-2,6.4564343E-3,-4.1611316E-3],"split_indices":[0,3,0,4,0,1,4,2,4,0,2,2,1,2,0,0,0,0,0,0,0,0,0,0,0,0,0,0,0],"split_type":[0,0,0,0,0,0,0,0,0,0,0,0,0,0,0,0,0,0,0,0,0,0,0,0,0,0,0,0,0],"sum_hessian":[3.01E2,1.83E2,1.18E2,1.69E2,1.4E1,9.9E1,1.9E1,1.51E2,1.8E1,1E0,1.3E1,7.6E1,2.3E1,8E0,1.1E1,5.2E1,9.9E1,1.4E1,4E0,9E0,4E0,1.2E1,6.4E1,3E0,2E1,2E0,6E0,1E1,1E0],"tree_param":{"num_deleted":"0","num_feature":"5","num_nodes":"29","size_leaf_vector":"1"}},{"base_weights":[1.7684833E-3,3.6078885E-2,-5.0408863E-2,2.6151774E-2,1.6693775E-1,-8.770338E-2,1.854501E-2,1.290331E-2,9.5245376E-2,2.595885E-1,5.0438743E-2,-2.2339639E-1,-5.804061E-2,-1.005621E-2,3.9523832E-2,-3.7898053E-3,1.0289209E-3,-7.7606336E-4,7.882235E-3,6.0412027E-3,2.0216657E-2,7.0271376E-3,-2.6137473E-3,2.9334626E-3,-1.3764821E-2,-4.174324E-3,8.599673E-3,6.51671E-3,3.0129188E-4],"categories":[],"categories_nodes":[],"categories_segments":[],"categories_sizes":[],"default_left":[0,0,0,0,0,0,0,0,0,0,0,0,0,0,0,0,0,0,0,0,0,0,0,0,0,0,0,0,0],"id":49,"left_children":[1,3,5,7,9,11,13,15,17,19,21,23,25,-1,27,-1,-1,-1,-1,-1,-1,-1,-1,-1,-1,-1,-1,-1,-1],"loss_changes":[5.549984E-1,2.3855668E-1,3.179334E-1,1.5896326E-1,1.2722507E-1,3.0903637E-1,2.1071887E-1,1.02314845E-1,1.9597617E-1,9.174463E-2,7.213127E-2,2.2110051E-1,4.0653804E-1,0E0,1.2393521E-1,0E0,0E0,0E0,0E0,0E0,0E0,0E0,0E0,0E0,0E0,0E0,0E0,0E0,0E0],"parents":[2147483647,0,0,1,1,2,2,3,3,4,4,5,5,6,6,7,7,8,8,9,9,10,10,11,11,12,12,14,14],"right_children":[2,4,6,8,10,12,14,16,18,20,22,24,26,-1,28,-1,-1,-1,-1,-1,-1,-1,-1,-1,-1,-1,-1,-1,-1],"split_conditions":[-1.054037E1,6.513408E-1,3.7525135E-1,4.9998814E-1,6.606615E-1,-8.932866E0,-1.0510902E1,2.3627976E-1,-1.0753967E1,-1.1119155E1,8.212086E-2,3.4633443E-1,3.529813E-1,-1.005621E-2,-1.0438035E1,-3.7898053E-3,1.0289209E-3,-7.7606336E-4,7.882235E-3,6.0412027E-3,2.0216657E-2,7.0271376E-3,-2.6137473E-3,2.9334626E-3,-1.3764821E-2,-4.174324E-3,8.599673E-3,6.51671E-3,3.0129188E-4],"split_indices":[3,1,0,0,1,3,3,0,3,3,2,0,0,0,3,0,0,0,0,0,0,0,0,0,0,0,0,0,0],"split_type":[0,0,0,0,0,0,0,0,0,0,0,0,0,0,0,0,0,0,0,0,0,0,0,0,0,0,0,0,0],"sum_hessian":[3.08E2,1.86E2,1.22E2,1.74E2,1.2E1,7.9E1,4.3E1,1.47E2,2.7E1,6E0,6E0,1.3E1,6.6E1,3E0,4E1,1.1E1,1.36E2,1E1,1.7E1,4E0,2E0,3E0,3E0,2E0,1.1E1,6E1,6E0,1E1,3E1],"tree_param":{"num_deleted":"0","num_feature":"5","num_nodes":"29","size_leaf_vector":"1"}},{"base_weights":[-1.5047324E-3,-4.597685E-2,4.5738105E-2,3.6253974E-2,-7.229134E-2,1.1726494E-1,2.7618304E-2,-9.512962E-2,1.0055138E-1,-5.513738E-2,-1.771296E-1,5.8289886E-2,2.2348857E-1,1.8190734E-1,1.4625464E-2,-1.4603138E-5,-1.54220555E-2,6.476462E-4,8.196337E-3,1.0395504E-2,-3.1238715E-3,-1.1233996E-2,1.0845661E-3,6.2593715E-3,-2.8852434E-3,3.6987364E-3,1.3849906E-2,1.0747253E-2,2.2091786E-3,7.9858E-3,2.311474E-4],"categories":[],"categories_nodes":[],"categories_segments":[],"categories_sizes":[],"default_left":[0,0,0,0,0,0,0,0,0,0,0,0,0,0,0,0,0,0,0,0,0,0,0,0,0,0,0,0,0,0,0],"id":50,"left_children":[1,3,5,7,9,11,13,15,17,19,21,23,25,27,29,-1,-1,-1,-1,-1,-1,-1,-1,-1,-1,-1,-1,-1,-1,-1,-1],"loss_changes":[6.2819767E-1,3.3585548E-1,1.8468887E-1,3.3057517E-1,2.0064527E-1,1.6864467E-1,2.318839E-1,2.6289913E-1,1.4221779E-1,2.0992938E-1,1.5613759E-1,1.6241923E-1,5.951327E-2,3.145364E-2,1.5745011E-1,0E0,0E0,0E0,0E0,0E0,0E0,0E0,0E0,0E0,0E0,0E0,0E0,0E0,0E0,0E0,0E0],"parents":[2147483647,0,0,1,1,2,2,3,3,4,4,5,5,6,6,7,7,8,8,9,9,10,10,11,11,12,12,13,13,14,14],"right_children":[2,4,6,8,10,12,14,16,18,20,22,24,26,28,30,-1,-1,-1,-1,-1,-1,-1,-1,-1,-1,-1,-1,-1,-1,-1,-1],"split_conditions":[3.5916287E-1,-2.1085896E1,-1.10213375E1,-1.3934573E1,-6.695616E0,1.0693054E-1,-3.1902784E-1,-1.3956994E1,1.3317986E-1,-5.3135213E-2,3.5551324E-2,-1.7440449E1,-1.1202039E1,6.435262E-1,-1.8409548E1,-1.4603138E-5,-1.54220555E-2,6.476462E-4,8.196337E-3,1.0395504E-2,-3.1238715E-3,-1.1233996E-2,1.0845661E-3,6.2593715E-3,-2.8852434E-3,3.6987364E-3,1.3849906E-2,1.0747253E-2,2.2091786E-3,7.9858E-3,2.311474E-4],"split_indices":[0,4,3,3,3,2,2,3,2,2,2,4,3,1,4,0,0,0,0,0,0,0,0,0,0,0,0,0,0,0,0],"split_type":[0,0,0,0,0,0,0,0,0,0,0,0,0,0,0,0,0,0,0,0,0,0,0,0,0,0,0,0,0,0,0],"sum_hessian":[2.97E2,1.53E2,1.44E2,3.7E1,1.16E2,2.8E1,1.16E2,1.2E1,2.5E1,1.01E2,1.5E1,1.9E1,9E0,8E0,1.08E2,9E0,3E0,1.1E1,1.4E1,2E0,9.9E1,1.2E1,3E0,1.2E1,7E0,3E0,6E0,6E0,2E0,6E0,1.02E2],"tree_param":{"num_deleted":"0","num_feature":"5","num_nodes":"31","size_leaf_vector":"1"}},{"base_weights":[-1.8346999E-3,-9.4618924E-2,1.8709771E-2,-8.04616E-2,-1.292744E-2,-1.5632473E-3,8.118896E-2,-1.1961922E-1,2.3237334E-3,3.5516426E-2,-3.2624654E-2,2.1318379E-1,3.8249146E-2,-4.5420793E-3,-1.2418356E-2,-1.360603E-2,1.7237306E-3,2.216795E-3,-1.1457364E-2,-5.1741E-3,-7.71384E-5,2.7636576E-3,1.3279051E-2,4.186594E-3,-1.2107941E-3],"categories":[],"categories_nodes":[],"categories_segments":[],"categories_sizes":[],"default_left":[0,0,0,0,0,0,0,0,0,0,0,0,0,0,0,0,0,0,0,0,0,0,0,0,0],"id":51,"left_children":[1,3,5,7,-1,9,11,13,15,17,19,21,23,-1,-1,-1,-1,-1,-1,-1,-1,-1,-1,-1,-1],"loss_changes":[5.888808E-1,1.0916209E-1,3.2058728E-1,1.7208683E-1,0E0,2.222941E-1,3.4325162E-1,1.10820055E-1,1.6820653E-1,2.1556854E-1,2.3109028E-1,1.09431684E-1,1.3839948E-1,0E0,0E0,0E0,0E0,0E0,0E0,0E0,0E0,0E0,0E0,0E0,0E0],"parents":[2147483647,0,0,1,1,2,2,3,3,5,5,6,6,7,7,8,8,9,9,10,10,11,11,12,12],"right_children":[2,4,6,8,-1,10,12,14,16,18,20,22,24,-1,-1,-1,-1,-1,-1,-1,-1,-1,-1,-1,-1],"split_conditions":[2.3627976E-1,2.3253883E-1,4.891527E-1,1.7279959E-1,-1.292744E-2,-1.0901439E1,-1.7146156E1,3.0721936E-1,2.4533E-1,4.8489782E-1,-1.0631518E1,-1.0878732E1,-1.0638262E1,-4.5420793E-3,-1.2418356E-2,-1.360603E-2,1.7237306E-3,2.216795E-3,-1.1457364E-2,-5.1741E-3,-7.71384E-5,2.7636576E-3,1.3279051E-2,4.186594E-3,-1.2107941E-3],"split_indices":[0,0,0,0,0,3,4,1,1,0,3,3,3,0,0,0,0,0,0,0,0,0,0,0,0],"split_type":[0,0,0,0,0,0,0,0,0,0,0,0,0,0,0,0,0,0,0,0,0,0,0,0,0],"sum_hessian":[3.07E2,5.5E1,2.52E2,5.2E1,3E0,1.91E2,6.1E1,3.5E1,1.7E1,8.7E1,1.04E2,1.4E1,4.7E1,3E1,5E0,1E0,1.6E1,8.5E1,2E0,3.1E1,7.3E1,4E0,1E1,2.7E1,2E1],"tree_param":{"num_deleted":"0","num_feature":"5","num_nodes":"25","size_leaf_vector":"1"}},{"base_weights":[-2.7336627E-3,2.9839475E-2,-5.437783E-2,1.121136E-2,1.2509009E-1,-9.176449E-2,4.5097857E-3,2.7870478E-2,-9.076743E-2,-5.7180785E-2,1.5533103E-1,-6.7568876E-2,-1.9451655E-1,-5.7104032E-2,1.6530672E-1,-1.1151361E-2,1.7659363E-3,-7.775879E-3,-1.1924584E-3,-5.770129E-3,4.3926598E-3,-2.6066662E-3,9.232913E-3,-4.38846E-3,4.751454E-3,-1.3623953E-2,2.450943E-3,4.6251473E-4,-8.2501685E-3,1.3238132E-2,3.5025717E-3],"categories":[],"categories_nodes":[],"categories_segments":[],"categories_sizes":[],"default_left":[0,0,0,0,0,0,0,0,0,0,0,0,0,0,0,0,0,0,0,0,0,0,0,0,0,0,0,0,0,0,0],"id":52,"left_children":[1,3,5,7,9,11,13,15,17,19,21,23,25,27,29,-1,-1,-1,-1,-1,-1,-1,-1,-1,-1,-1,-1,-1,-1,-1,-1],"loss_changes":[5.046042E-1,3.2507607E-1,2.5580072E-1,2.658556E-1,1.7424312E-1,1.6337329E-1,4.651761E-1,2.582893E-1,9.16163E-2,5.235918E-2,1.6782016E-1,2.021279E-1,2.6018283E-1,2.4495228E-1,1.046111E-1,0E0,0E0,0E0,0E0,0E0,0E0,0E0,0E0,0E0,0E0,0E0,0E0,0E0,0E0,0E0,0E0],"parents":[2147483647,0,0,1,1,2,2,3,3,4,4,5,5,6,6,7,7,8,8,9,9,10,10,11,11,12,12,13,13,14,14],"right_children":[2,4,6,8,10,12,14,16,18,20,22,24,26,28,30,-1,-1,-1,-1,-1,-1,-1,-1,-1,-1,-1,-1,-1,-1,-1,-1],"split_conditions":[-1.054037E1,4.9998814E-1,3.5404596E-1,4.8502344E-1,5.890421E-1,3.4633884E-1,-8.897368E0,3.0100217E-1,-1.6941086E1,-1.9848657E-1,-1.0958897E1,-1.58468485E1,-8.575625E0,6.594222E-2,1.2170455E-2,-1.1151361E-2,1.7659363E-3,-7.775879E-3,-1.1924584E-3,-5.770129E-3,4.3926598E-3,-2.6066662E-3,9.232913E-3,-4.38846E-3,4.751454E-3,-1.3623953E-2,2.450943E-3,4.6251473E-4,-8.2501685E-3,1.3238132E-2,3.5025717E-3],"split_indices":[3,0,0,0,1,0,3,1,4,2,3,4,3,2,2,0,0,0,0,0,0,0,0,0,0,0,0,0,0,0,0],"split_type":[0,0,0,0,0,0,0,0,0,0,0,0,0,0,0,0,0,0,0,0,0,0,0,0,0,0,0,0,0,0,0],"sum_hessian":[2.98E2,1.83E2,1.15E2,1.54E2,2.9E1,7E1,4.5E1,1.33E2,2.1E1,4E0,2.5E1,5.8E1,1.2E1,3.3E1,1.2E1,3E0,1.3E2,1E1,1.1E1,3E0,1E0,3E0,2.2E1,5.2E1,6E0,9E0,3E0,2.1E1,1.2E1,5E0,7E0],"tree_param":{"num_deleted":"0","num_feature":"5","num_nodes":"31","size_leaf_vector":"1"}},{"base_weights":[1.084171E-2,-2.9469857E-2,6.8945974E-2,-9.960254E-2,-5.8739996E-3,8.2615234E-2,-1.6140513E-2,-6.7422114E-2,-1.824802E-1,2.1901509E-2,-8.902776E-2,5.3650275E-2,1.2286846E-1,-1.8568754E-1,3.0148061E-2,-2.385049E-3,-1.2765343E-2,-5.2907295E-3,-1.20755015E-2,-6.171832E-6,4.487164E-3,-5.7538743E-3,1.0925595E-2,4.212828E-3,-7.1374974E-3,1.2196195E-2,4.668677E-3,-1.06511675E-2,-2.5920034E-3,-1.23769585E-2,3.3832116E-3],"categories":[],"categories_nodes":[],"categories_segments":[],"categories_sizes":[],"default_left":[0,0,0,0,0,0,0,0,0,0,0,0,0,0,0,0,0,0,0,0,0,0,0,0,0,0,0,0,0,0,0],"id":53,"left_children":[1,3,5,7,9,11,13,15,17,19,21,23,25,27,29,-1,-1,-1,-1,-1,-1,-1,-1,-1,-1,-1,-1,-1,-1,-1,-1],"loss_changes":[7.093985E-1,2.956314E-1,1.45554E-1,1.0771355E-1,3.1375098E-1,1.1816293E-1,1.4686374E-1,1.1380185E-1,2.8751433E-2,1.5242064E-1,2.975308E-1,3.9673674E-1,1.3432682E-1,3.5921782E-3,1.7301598E-1,0E0,0E0,0E0,0E0,0E0,0E0,0E0,0E0,0E0,0E0,0E0,0E0,0E0,0E0,0E0,0E0],"parents":[2147483647,0,0,1,1,2,2,3,3,4,4,5,5,6,6,7,7,8,8,9,9,10,10,11,11,12,12,13,13,14,14],"right_children":[2,4,6,8,10,12,14,16,18,20,22,24,26,28,30,-1,-1,-1,-1,-1,-1,-1,-1,-1,-1,-1,-1,-1,-1,-1,-1],"split_conditions":[5.3313524E-1,1.74197E-1,-1.0536357E1,-1.6124905E1,4.9790585E-1,4.8959383E-1,-1.0508243E1,6.962224E-2,2.634167E-1,-8.879377E0,1.868694E-1,4.8502344E-1,4.9293816E-1,-2.4678212E-1,3.576182E-1,-2.385049E-3,-1.2765343E-2,-5.2907295E-3,-1.20755015E-2,-6.171832E-6,4.487164E-3,-5.7538743E-3,1.0925595E-2,4.212828E-3,-7.1374974E-3,1.2196195E-2,4.668677E-3,-1.06511675E-2,-2.5920034E-3,-1.23769585E-2,3.3832116E-3],"split_indices":[1,0,3,4,1,0,3,2,1,3,2,0,0,2,0,0,0,0,0,0,0,0,0,0,0,0,0,0,0,0,0],"split_type":[0,0,0,0,0,0,0,0,0,0,0,0,0,0,0,0,0,0,0,0,0,0,0,0,0,0,0,0,0,0,0],"sum_hessian":[3.01E2,1.78E2,1.23E2,4.4E1,1.34E2,1.06E2,1.7E1,3.3E1,1.1E1,1.01E2,3.3E1,6.3E1,4.3E1,3E0,1.4E1,3.1E1,2E0,6E0,5E0,7.7E1,2.4E1,3.1E1,2E0,5.5E1,8E0,7E0,3.6E1,2E0,1E0,1E0,1.3E1],"tree_param":{"num_deleted":"0","num_feature":"5","num_nodes":"31","size_leaf_vector":"1"}},{"base_weights":[-4.699714E-3,-9.1130584E-2,1.7016266E-2,-7.4522E-2,-2.3095556E-1,2.2639224E-2,-1.2758222E-2,-1.724063E-1,-4.6763483E-2,-1.2724559E-2,-2.8319359E-3,2.69719E-2,-1.2481121E-1,3.050049E-4,-1.0435879E-2,2.8877736E-3,-3.0636122E-3,1.1527193E-3,1.0049991E-2,-7.688999E-5,-8.690651E-3],"categories":[],"categories_nodes":[],"categories_segments":[],"categories_sizes":[],"default_left":[0,0,0,0,0,0,0,0,0,0,0,0,0,0,0,0,0,0,0,0,0],"id":54,"left_children":[1,3,5,7,9,11,-1,13,15,-1,-1,17,19,-1,-1,-1,-1,-1,-1,-1,-1],"loss_changes":[5.7026076E-1,1.2444866E-1,3.7767872E-1,1.4409658E-1,1.0201901E-2,1.5605274E-1,0E0,7.905477E-2,7.1778595E-2,0E0,0E0,1.5421557E-1,4.201705E-2,0E0,0E0,0E0,0E0,0E0,0E0,0E0,0E0],"parents":[2147483647,0,0,1,1,2,2,3,3,4,4,5,5,7,7,8,8,11,11,12,12],"right_children":[2,4,6,8,10,12,-1,14,16,-1,-1,18,20,-1,-1,-1,-1,-1,-1,-1,-1],"split_conditions":[2.3780361E-1,2.3253883E-1,1.7075452E-1,-6.8349163E-3,-1.3934573E1,-1.5477549E1,-1.2758222E-2,-6.958034E0,-2.1705168E1,-1.2724559E-2,-2.8319359E-3,-1.5532679E1,3.4201562E-1,3.050049E-4,-1.0435879E-2,2.8877736E-3,-3.0636122E-3,1.1527193E-3,1.0049991E-2,-7.688999E-5,-8.690651E-3],"split_indices":[0,0,2,2,3,4,0,3,4,0,0,4,0,0,0,0,0,0,0,0,0],"split_type":[0,0,0,0,0,0,0,0,0,0,0,0,0,0,0,0,0,0,0,0,0],"sum_hessian":[3.02E2,6E1,2.42E2,5.5E1,5E0,2.38E2,4E0,1.1E1,4.4E1,4E0,1E0,2.32E2,6E0,2E0,9E0,5E0,3.9E1,2.28E2,4E0,2E0,4E0],"tree_param":{"num_deleted":"0","num_feature":"5",